tree
version=v4
num_class=1
num_tree_per_iteration=1
label_index=0
max_feature_idx=12
objective=binary sigmoid:1
feature_names=Column_0 Column_1 Column_2 Column_3 Column_4 Column_5 Column_6 Column_7 Column_8 Column_9 Column_10 Column_11 Column_12
feature_infos=[-3.8327444591953519:2.413908816211138] [-2.2684918512276342:6.0744547103233204] [-1.7880945918662152:1.7725549954788984] [-0.88465622490770135:3.1067131699212531] [-1.0140142654487829:4.4702863131594857] [-1.7499626369637811:0.57144077186414621] [-0.99461409326210259:1.0054150718096433] [-2.2410988008622317:1.7366115925801189] [-1.1530414355917153:0.8672715213281319] [-0.5157604679012322:1.9388845447369563] [-0.52978451572730167:1.887559885790876] [-0.87903241005458255:1.1376144821985645] [-1.1376144821985645:0.87903241005458244]
tree_sizes=3435 3498 3484 3505 3507 3496 3505 3520 3513 3511 3513 3530 3529 3501 3500 3504 3514 3538 3517 3525 3528 3518 3518 3511 3504 3502 3508 3507 3510 3498 3505 3477 3498 3496 3483 3509 3514 3497 3492 3497 3476 3482 3502 3470 3460 3487 3480 3467 3443 3443 3482 3412 3441 3469 3472 3460 3433 3451 3471 3417 3417 3456 3451 3410 3436 3452 3453 3427 3495 3433 3452 3427 3449 3474 3417 3380 3437 3393 3428 3458 3378 3396 3415 3402 3425 3407 3435 3407 3406 3418 3370 3388 3384 3441 3374 3436 3438 3381 3428 3378

Tree=0
num_leaves=31
num_cat=0
split_feature=1 4 4 4 4 6 6 1 6 1 1 9 3 9 3 9 3 3 1 11 3 9 9 3 3 11 11 3 11 6
split_gain=19367 6312.24 4485.82 3802.7 4341.02 3023.77 1713.72 1037 722.222 498.719 441.605 432.82 547.984 405.428 750.474 315.639 634.416 261.237 227.138 195.948 189.542 598.586 141.51 140.287 137.113 135.919 126.397 118.527 111.239 110.394
threshold=0.49369991577234401 1.0000000180025095e-35 1.7281360238553518 1.0000000180025095e-35 1.7281360238553518 1.0000000180025095e-35 1.0000000180025095e-35 1.0000000180025095e-35 1.0000000180025095e-35 1.0574125212825438 1.0574125212825438 1.0000000180025095e-35 0.092395250058464343 1.0000000180025095e-35 0.12971563341546763 1.0000000180025095e-35 -0.14901730346671471 -0.48614836439208337 1.0000000180025095e-35 1.0000000180025095e-35 -0.78266752912096449 1.0000000180025095e-35 1.0000000180025095e-35 0.092395250058464343 0.70277381735565192 1.0000000180025095e-35 1.0000000180025095e-35 0.24918917375345825 1.0000000180025095e-35 1.0000000180025095e-35
decision_type=2 2 2 2 2 2 2 2 2 2 2 2 2 2 2 2 2 2 2 2 2 2 2 2 2 2 2 2 2 2
left_child=3 5 8 6 17 9 7 11 10 20 27 12 19 14 -7 16 -9 -5 22 -1 -2 -22 23 -8 -12 -13 -15 -3 -20 -19
right_child=1 2 -4 4 -6 13 18 15 -10 -11 24 25 -14 26 -16 -17 -18 29 28 -21 21 -23 -24 -25 -26 -27 -28 -29 -30 -31
leaf_value=-1.2979012199751141 -0.97575651461052881 -1.3494936536777087 -0.88059863286184537 -1.428046854855904 -0.95489410387502005 -1.119718420529223 -1.354287508473335 -1.1094125509167174 -1.3865078455338344 -0.93351933472207915 -1.2126312242003161 -1.2665163336697989 -1.3611596932050674 -1.1505128253435655 -1.2969650076000399 -1.0810217198633512 -1.3009643627513636 -1.365217690216733 -1.347688838908238 -1.1991864236577281 -1.1786732767527912 -0.97481403408952372 -1.3330136289278949 -1.408100145937871 -1.0668843968185868 -1.1724530953237395 -1.0388317898161041 -1.2446471405072725 -1.2709686368911899 -1.4100610639079028
leaf_weight=464.46174651384354 335.40749415755272 354.6070271730423 245.42011767625809 7147.5687605142593 206.18628934025764 457.11583822965622 765.81093862652779 330.06501540541649 1118.5814887285233 1006.2224824726582 186.65285140275955 329.2302531003952 1205.7306733727455 197.0039039850235 500.35652562975883 262.61622115969658 363.12160268425941 1050.9657420217991 435.7459232211113 354.6070271730423 270.79689174890518 307.69338563084602 594.35076117515564 1318.5905370116234 98.668904453516006 287.99299523234367 208.6905762553215 154.93188381195068 333.73796954751015 1149.3007415533066
leaf_count=2782 2009 2124 1470 42812 1235 2738 4587 1977 6700 6027 1118 1972 7222 1180 2997 1573 2175 6295 2610 2124 1622 1843 3560 7898 591 1725 1250 928 1999 6884
internal_value=-1.31399 -1.15028 -1.28309 -1.36766 -1.40876 -1.06295 -1.31193 -1.26364 -1.33472 -0.982089 -1.26184 -1.29594 -1.31828 -1.17684 -1.21234 -1.17438 -1.20976 -1.41877 -1.3623 -1.25516 -1.03557 -1.07024 -1.37606 -1.38833 -1.16223 -1.22263 -1.09306 -1.31761 -1.31441 -1.38864
internal_weight=0 5442.15 2158.86 16600.1 9554.02 3283.29 7046.06 3597.83 1913.44 1920.12 794.861 2642.02 2024.8 1363.17 957.472 955.803 693.187 9347.84 3448.24 819.069 913.898 578.49 2678.75 2084.4 285.322 617.223 405.694 509.539 769.484 2200.27
internal_count=132027 32597 12931 99430 57226 19666 42204 21550 11461 11501 4761 15825 12128 8165 5735 5725 4152 55991 20654 4906 5474 3465 16045 12485 1709 3697 2430 3052 4609 13179
is_linear=0
shrinkage=1


Tree=1
num_leaves=31
num_cat=0
split_feature=1 4 4 4 4 6 6 1 6 9 3 1 11 3 1 9 3 11 11 1 9 3 3 9 3 9 3 6 11 3
split_gain=14620.1 3969.48 3372.12 3238.06 2841.7 1633.25 1379.72 739.06 598.177 329.023 441.513 316.939 265.283 254.531 245.924 203.893 267.822 198.718 141.501 135.309 122.743 172.339 114.059 113.856 225.555 109.874 238.668 102.843 98.5099 94.2499
threshold=0.49369991577234401 1.0000000180025095e-35 1.0000000180025095e-35 1.7281360238553518 1.7281360238553518 1.0000000180025095e-35 1.0000000180025095e-35 1.0000000180025095e-35 1.0000000180025095e-35 1.0000000180025095e-35 0.092395250058464343 1.0574125212825438 1.0000000180025095e-35 -0.48614836439208337 0.83192747907846376 1.0000000180025095e-35 0.092395250058464343 1.0000000180025095e-35 1.0000000180025095e-35 -0.07001268973785571 1.0000000180025095e-35 0.24918917375345825 0.38105259807093489 1.0000000180025095e-35 -0.21502533583447367 1.0000000180025095e-35 0.12971563341546763 1.0000000180025095e-35 1.0000000180025095e-35 0.24918917375345825
decision_type=2 2 2 2 2 2 2 2 2 2 2 2 2 2 2 2 2 2 2 2 2 2 2 2 2 2 2 2 2 2
left_child=2 5 6 13 8 14 7 9 11 10 18 29 23 -4 28 16 19 20 -1 -8 21 -9 -10 24 -7 26 -14 -15 -2 -3
right_child=1 4 3 -5 -6 12 15 17 22 -11 -12 -13 25 27 -16 -17 -18 -19 -20 -21 -22 -23 -24 -25 -26 -27 -28 -29 -30 -31
leaf_value=0.014337525201753371 0.15705497663685283 -0.032659870183876415 -0.11026223399126159 0.26582360736320249 0.31004023184827867 0.11968650527080982 -0.043167833423919971 0.1143670546274691 -0.088598581575866017 0.077834225627853401 -0.043706786875361676 0.12493456447577707 0.19314980114787081 -0.047587133233876033 0.26988330135753785 -9.4194519669007058e-06 -0.083950997182695303 0.16135772857068889 0.096567920013595834 0.035841822712489105 0.15101612818152932 -0.018824733961200563 -0.015922529314727554 0.13381326909873748 -0.010354827681431268 0.21228015888020346 0.050373786006860578 -0.091808561309070141 0.23439509734594802 0.059877284002060875
leaf_weight=468.76780489087105 315.22933351993561 347.35143935680389 6678.6032393574715 247.83030726015568 304.54466745257378 241.3566646873951 671.54469108581543 184.07286152243614 772.06110236048698 649.63337145745754 1172.9590695202351 310.09888391196728 262.13448670506477 1019.945152848959 1618.5769496113062 778.5972755998373 1582.1113295555115 494.16679875552654 378.01288425922394 320.06011360883713 148.10083740949631 205.71541719138622 299.80159673094749 215.47444313764572 298.13678351044655 241.32290855050087 211.5808916836977 1085.7472465634346 344.86547984182835 161.11804676055908
leaf_count=2782 1640 2124 42812 1235 1470 1301 4118 990 4826 3697 7222 1709 1413 6295 8079 4701 9906 2729 2124 1929 783 1223 1874 1180 1766 1250 1255 6884 1782 928
internal_value=0 0.133354 -0.0501854 -0.0906471 0.0265556 0.195888 0.00162469 0.0437142 -0.0191132 0.0159297 -0.0039814 0.0452558 0.113708 -0.100704 0.248904 -0.0448481 -0.0584126 0.115578 0.0510461 -0.0176659 0.0735188 0.0440735 -0.068271 0.0723651 0.0478226 0.157359 0.12938 -0.0703888 0.197461 -0.00333775
internal_weight=0 5943.65 16085.9 9032.13 2194.98 3748.68 7053.74 3701.43 1890.43 2669.37 2019.74 818.568 1470.01 8784.3 2278.67 3352.31 2573.72 1032.06 846.781 991.605 537.889 389.788 1071.86 754.968 539.493 715.038 473.715 2105.69 660.095 508.469
internal_count=132027 32597 99430 57226 12931 19666 42204 21550 11461 15825 12128 4761 8165 55991 11501 20654 15953 5725 4906 6047 2996 2213 6700 4247 3067 3918 2668 13179 3422 3052
is_linear=0
shrinkage=0.1


Tree=2
num_leaves=31
num_cat=0
split_feature=1 4 4 4 4 6 6 6 1 1 9 3 3 11 1 11 11 11 11 3 1 3 3 1 9 3 6 11 9 3
split_gain=11506.6 3269.07 2633.13 2328.23 2315.96 1169.01 977.642 492.601 440.084 308.604 266.602 557.396 222.724 220.135 213.786 161.131 120.429 120.112 114.746 104.714 100.402 96.2546 90.966 86.3083 85.2633 184.349 81.661 74.9726 74.8135 188.149
threshold=0.38095739467030404 1.0000000180025095e-35 1.0000000180025095e-35 1.7281360238553518 1.7281360238553518 1.0000000180025095e-35 1.0000000180025095e-35 1.0000000180025095e-35 -0.40824025304397543 0.94467000018050373 1.0000000180025095e-35 -0.4258200032334149 -0.48614836439208337 1.0000000180025095e-35 1.0574125212825438 1.0000000180025095e-35 1.0000000180025095e-35 1.0000000180025095e-35 1.0000000180025095e-35 0.50911607934980252 -0.21432311674846694 0.70277381735565192 -0.036192728831953423 2.635807816711103 1.0000000180025095e-35 -0.032393263043218372 1.0000000180025095e-35 1.0000000180025095e-35 1.0000000180025095e-35 0.12971563341546763
decision_type=2 2 2 2 2 2 2 2 2 2 2 2 2 2 2 2 2 2 2 2 2 2 2 2 2 2 2 2 2 2
left_child=2 5 6 7 12 14 8 9 18 22 11 16 -4 24 17 -8 -10 -2 -1 -9 -17 -11 -3 28 25 -7 -14 -12 29 -15
right_child=1 3 4 -5 -6 13 15 19 10 21 27 -13 26 23 -16 20 -18 -19 -20 -21 -22 -23 -24 -25 -26 -27 -28 -29 -30 -31
leaf_value=-0.029249263552555929 0.1378054860949387 -0.044643536932958743 -0.1075110703691014 0.2487843328624782 0.21114897855762924 0.095195783802624306 -0.063827871552493476 -0.086209587170072086 0.06640376424100658 0.060236604517235684 0.086688624970619188 -0.018976018612111872 -0.047518602154237137 0.17146591295183777 0.22600440602113647 -0.038948877786674364 0.15203168927824526 0.19716035968663664 0.024054249710455083 -0.01954775221319302 0.019058723322372711 0.16417831505258645 0.039092664864141806 0.03219543575139535 0.10548209771949908 -0.015487829277358185 -0.088692086855247459 0.16153703511839881 0.18256814292204629 0.046285953016148393
leaf_weight=937.53697922825813 628.70571434497833 402.40214927494526 6015.7576083987951 364.06487360596657 249.89398591220379 280.7992509752512 1844.788703083992 860.03726644814014 339.29118224978447 253.43462611734867 267.83090032637119 732.37325300276279 947.57932886481285 271.5718025714159 1352.3108767569065 815.01569594442844 318.3679671138525 744.86383482813835 709.46254971623421 324.56692264974117 470.70953865349293 137.39135017991066 191.45989488065243 83.756945833563805 248.21398884057999 324.23388223350048 979.77152772247791 267.46979919075966 259.90840947628021 215.22740796208382
leaf_count=5646 3060 2575 41337 1582 1123 1450 11759 5703 1871 1382 1413 4445 6018 1350 6027 5223 1641 3505 4071 2065 2871 692 1103 430 1290 1946 6577 1372 1250 1250
internal_value=0 0.105304 -0.0505739 0.0147742 -0.0886026 0.157314 -0.00409073 -0.0244989 0.0316606 0.0277679 0.0641234 0.0410312 -0.0980329 0.0918009 0.19778 -0.0448878 0.107856 0.169993 -0.00628821 -0.0679451 -0.017712 0.0967764 -0.0176472 0.128452 0.0561284 0.0358811 -0.0684492 0.124088 0.139249 0.11612
internal_weight=0 6942.95 14895.8 2533.36 8193 4409.59 6702.85 2169.29 3572.33 984.688 1925.33 1390.03 7943.11 1683.71 2725.88 3130.51 657.659 1373.57 1647 1184.6 1285.73 390.826 593.862 830.465 853.247 605.033 1927.35 535.301 746.708 486.799
internal_count=132027 36660 95367 15102 55055 21558 40312 13520 20459 5752 10742 7957 53932 8966 12592 19853 3512 6565 9717 7768 8094 2074 3678 4280 4686 3396 12595 2785 3850 2600
is_linear=0
shrinkage=0.1


Tree=3
num_leaves=31
num_cat=0
split_feature=1 4 4 4 4 6 6 6 1 1 3 11 1 9 3 11 9 3 3 9 3 9 3 9 3 1 6 3 3 1
split_gain=9220.21 2378.92 2360.3 1906.33 1780.38 838.849 801.37 416.389 340.152 237.117 219.655 200.476 169.983 159.359 215.129 158.745 108.883 117.238 96.5073 92.0302 300.011 91.8122 163.244 85.9917 242.753 84.5954 76.4377 74.8693 69.6544 68.2922
threshold=0.38095739467030404 1.0000000180025095e-35 1.0000000180025095e-35 1.7281360238553518 1.7281360238553518 1.0000000180025095e-35 1.0000000180025095e-35 1.0000000180025095e-35 -0.40824025304397543 0.94467000018050373 -0.48614836439208337 1.0000000180025095e-35 0.7191849579764239 1.0000000180025095e-35 0.092395250058464343 1.0000000180025095e-35 1.0000000180025095e-35 0.20404714221110784 -0.16484799995460822 1.0000000180025095e-35 0.20404714221110784 1.0000000180025095e-35 -0.16917029298033442 1.0000000180025095e-35 -0.022221318311604048 -0.40824025304397543 1.0000000180025095e-35 -0.036192728831953423 0.50911607934980252 -0.40824025304397543
decision_type=2 2 2 2 2 2 2 2 2 2 2 2 2 2 2 2 2 2 2 2 2 2 2 2 2 2 2 2 2 2
left_child=2 5 6 10 7 12 8 9 16 27 -4 21 -2 14 25 -7 17 -1 -9 20 -14 22 -10 24 -13 -8 -12 -3 -11 -15
right_child=1 4 3 -5 -6 15 13 18 11 28 26 23 19 29 -16 -17 -18 -19 -20 -21 -22 -23 -24 -25 -26 -27 -28 -29 -30 -31
leaf_value=0.015440525436211897 0.12579657424233812 -0.041365509581795884 -0.10429252499346171 0.17834991680662807 0.21109697999732036 0.04911604547917555 -0.048435246052954656 -0.083493101524729232 0.057661589824593198 0.049615006391306303 -0.044107348814217483 0.12761821225680378 0.20173072192539793 -0.032179499442831584 -0.078921078862104158 0.10935851029852335 0.040298566802358958 -0.046524164482297604 -0.020311482383773338 0.2079445710069262 0.10415413041263198 0.074733689347853002 -0.035148296951583662 0.1349761317475221 0.005559394935741745 0.012415389743677835 -0.084813316517783122 0.034403117516707972 0.13403854162832951 0.029361142874751535
leaf_weight=531.87811623513699 745.90952384471893 391.45296467840672 5602.6504055410624 265.30965162813663 384.83486959338188 874.98051193356514 437.35545149445534 785.06907367706299 351.96163392066956 246.36570778489113 920.25189140439034 341.00360794365406 841.55632083117962 351.20014657080173 1407.4305510520935 874.68761874735355 391.68189309537411 716.87468446791172 349.33090978860855 804.92412607371807 503.69111034274101 278.95882822573185 410.61682562530041 286.91377931833267 312.03814671933651 478.33206634223461 924.99411821365356 195.56871449947357 161.9849715679884 370.60662326216698
leaf_count=3017 3429 2575 41337 1123 1582 4686 2844 5507 1877 1305 6018 1644 3567 2195 9571 4280 2147 4553 2261 3409 2187 1413 2569 1372 1867 2964 6577 1103 769 2279
internal_value=0 0.0914951 -0.0473882 -0.0850539 0.0131493 0.133901 -0.00381089 -0.0226184 0.0279779 0.024585 -0.0944369 0.0558616 0.16693 -0.0416236 -0.0543755 0.0792322 -0.00570294 -0.0201317 -0.0640367 0.181199 0.165196 0.0256446 0.00768732 0.0893441 0.0692957 -0.0166484 -0.0645126 -0.0161229 0.0831042 -0.000581888
internal_weight=0 7160.36 14380.1 7713.21 2514.61 4645.75 6666.85 2129.77 3621.93 995.372 7447.9 1981.49 2896.08 3044.92 2323.12 1749.67 1640.43 1248.75 1134.4 2150.17 1345.25 1041.54 762.578 939.956 653.042 915.688 1845.25 587.022 408.351 721.807
internal_count=132027 36660 95367 55055 15102 21558 40312 13520 20459 5752 53932 10742 12592 19853 15379 8966 9717 7570 7768 9163 5754 5859 4446 4883 3511 5808 12595 3678 2074 4474
is_linear=0
shrinkage=0.1


Tree=4
num_leaves=31
num_cat=0
split_feature=1 4 4 4 4 6 6 6 1 3 1 1 11 11 9 3 9 3 11 11 3 9 3 6 9 3 1 9 3 1
split_gain=7472.78 2114.02 1781.91 1595.85 1408.94 658.72 646.491 352.109 266.03 216.986 190.802 154.846 151.228 143.989 134.924 292.938 109.042 392.061 92.4603 89.7051 88.1113 80.3081 137.309 71.4093 70.7009 130.387 69.9067 62.1904 180.915 53.7233
threshold=0.38095739467030404 1.0000000180025095e-35 1.0000000180025095e-35 1.7281360238553518 1.7281360238553518 1.0000000180025095e-35 1.0000000180025095e-35 1.0000000180025095e-35 -0.40824025304397543 -0.48614836439208337 1.1701550423845839 1.2828975634866235 1.0000000180025095e-35 1.0000000180025095e-35 1.0000000180025095e-35 -0.022221318311604048 1.0000000180025095e-35 0.092395250058464343 1.0000000180025095e-35 1.0000000180025095e-35 -0.16484799995460822 1.0000000180025095e-35 0.092395250058464343 1.0000000180025095e-35 1.0000000180025095e-35 -0.16917029298033442 1.0000000180025095e-35 1.0000000180025095e-35 -0.022221318311604048 3.0867779011192629
decision_type=2 2 2 2 2 2 2 2 2 2 2 2 2 2 2 2 2 2 2 2 2 2 2 2 2 2 2 2 2 2
left_child=1 5 6 9 7 8 11 10 18 -3 19 16 24 -7 15 -8 17 -2 -1 -4 -9 22 -15 26 25 -10 -11 28 -14 -16
right_child=2 3 4 -5 -6 13 14 20 12 23 -12 -13 27 21 29 -17 -18 -19 -20 -21 -22 -23 -24 -25 -26 -27 -28 -29 -30 -31
leaf_value=-0.026230514955363538 0.1574884184255857 -0.10126308121896566 -0.037994628984960734 0.15479524306930703 0.18527887521988712 -0.057278924392689938 0.097679337969672736 -0.079688151919000166 0.05039272811374565 -0.05443868565734733 0.089949951481549772 0.17464162598209493 0.10906102867924988 0.018178294727940952 0.11520534019123947 -3.6726305360326633e-06 0.1597687908351888 0.04345250370049767 0.02172602915938663 0.033446283603823297 -0.01852513498426233 0.030572477962973174 -0.060199494461906422 -0.081066454072260791 0.064973834435582856 -0.032351797875776349 0.016715448335523461 0.11518033751460931 0.004986755121595219 -0.032928350688006348
leaf_weight=916.66712513566017 721.00150671601295 5213.3904541432858 393.42246352136135 274.54417787492275 394.01238062977791 1724.5243221968412 630.40992490947247 742.53517603874207 361.88757953047752 724.448635160923 291.82204370200634 1089.5935867130756 358.10793448984623 382.66964288055897 553.58357918262482 598.42031842470169 674.5577013194561 518.15648549795151 716.09549462795258 317.68865370750427 344.95461532473564 319.75959159433842 537.43880657851696 873.66746254265308 288.23881177604198 401.96958281099796 170.58973199129105 301.7198169529438 313.02807931602001 25.615325421094894
leaf_count=5646 3019 41337 2420 1123 1582 11759 2935 5507 1877 4871 1400 4432 1644 2396 2538 3374 2814 2327 4071 1932 2261 1941 3757 6577 1413 2569 1147 1372 1867 119
internal_value=0 -0.0444129 0.0805949 -0.0816959 0.0118206 -0.00355751 0.116108 -0.0208736 0.0248358 -0.090995 0.0218628 0.144549 0.0490525 -0.0385915 0.068864 0.0501093 0.127416 0.109804 -0.00519778 -0.00607843 -0.0602871 -0.0125993 -0.0276025 -0.060729 0.0227736 0.00684953 -0.0408771 0.0774717 0.0605192 0.108654
internal_weight=0 13878.7 7295.77 7256.64 2484.44 6622.11 4811.34 2090.42 3657.71 6982.1 1002.93 3003.31 2024.95 2964.39 1808.03 1228.83 1913.72 1239.16 1632.76 711.111 1087.49 1239.87 920.108 1768.71 1052.1 763.857 895.038 972.856 671.136 579.199
internal_count=132027 95367 36660 55055 15102 40312 21558 13520 20459 53932 5752 12592 10742 19853 8966 6309 8160 5346 9717 4352 7768 8094 6153 12595 5859 4446 6018 4883 3511 2657
is_linear=0
shrinkage=0.1


Tree=5
num_leaves=31
num_cat=0
split_feature=1 4 4 4 4 6 6 1 6 3 11 11 1 1 1 9 3 1 1 3 6 1 9 3 3 9 3 9 3 9
split_gain=6119.91 2097.75 1492.16 1121.08 982.232 613.725 460.308 302.172 291.577 236.667 148.665 126.298 120.99 115.213 105.51 101.799 233.783 98.8171 87.5238 79.9178 78.1647 74.9023 71.058 256.759 69.8705 63.9401 121.192 60.2317 104.532 57.2051
threshold=0.49369991577234401 1.0000000180025095e-35 1.7281360238553518 1.0000000180025095e-35 1.7281360238553518 1.0000000180025095e-35 1.0000000180025095e-35 -0.07001268973785571 1.0000000180025095e-35 -0.48614836439208337 1.0000000180025095e-35 1.0000000180025095e-35 3.0867779011192629 1.2828975634866235 1.2828975634866235 1.0000000180025095e-35 0.31789653140868585 -0.21432311674846694 0.83192747907846376 -0.16484799995460822 1.0000000180025095e-35 1.0000000180025095e-35 1.0000000180025095e-35 -0.21502533583447367 0.24918917375345825 1.0000000180025095e-35 0.20404714221110784 1.0000000180025095e-35 0.24918917375345825 1.0000000180025095e-35
decision_type=2 2 2 2 2 2 2 2 2 2 2 2 2 2 2 2 2 2 2 2 2 2 2 2 2 2 2 2 2 2
left_child=1 5 9 6 8 7 14 11 13 -3 29 -1 18 24 22 16 -9 -12 -8 -10 21 -11 23 -2 -5 26 -20 28 -13 -7
right_child=3 2 -4 4 -6 10 12 15 19 20 17 27 -14 -15 -16 -17 -18 -19 25 -21 -22 -23 -24 -25 -26 -27 -28 -29 -30 -31
leaf_value=-0.015900833294789567 0.14066331926288675 -0.097620315619695586 0.13873913700991916 -0.019092217037373061 0.16692497159250286 -0.062610342629278254 0.033069805571738047 0.087900005915901774 -0.073192345733797334 -0.050841633000684533 -0.030995518282680934 0.052307079606050556 -0.041003787004429783 0.086764581895144688 0.15474216298597968 0.10242803320228687 -0.0072482305766150617 0.025000217983814989 0.10368891579039737 -0.0099367599201588414 -0.076742837365524591 0.016321905200756808 0.14244089529122669 0.042603437429854514 0.050882789695876056 0.11883573503444352 0.02405355111212551 0.066391479621634483 -0.020317517491692246 -0.019835146071757126
leaf_weight=1335.7659589648247 642.48086078464985 5039.6677215769887 307.27049081027508 401.26142433285713 366.98916032910347 1330.5825757831335 432.25513769686222 573.17351390421391 609.40201959013939 699.4726334810257 762.57952935993671 385.33879411220551 101.64436492323875 244.80404153466225 1105.6797453761101 439.10727933049202 469.96683116257191 537.13787972927094 441.1751925945282 297.10806262493134 869.66032342612743 217.73268249630928 611.18375407159328 456.91732530295849 221.44329252839088 389.21845862269402 337.13310110569 319.25248855352402 408.07504457235336 408.66851253807545
leaf_count=8144 2605 42812 1235 2492 1470 9555 2094 2634 4746 4871 5223 1921 510 1133 4432 1941 2777 3233 1969 1954 6884 1424 2476 1988 1136 1700 1892 1549 2584 2643
internal_value=0 -0.0387098 -0.0768303 0.0776094 0.0180059 0.000308615 0.105857 0.0264008 -0.0128008 -0.0865333 -0.0334397 0.00482788 0.0647892 0.0286418 0.130667 0.0620358 0.0450328 -0.007854 0.0715109 -0.0524604 -0.0552637 -0.0348979 0.115105 0.099909 0.00579196 0.085743 0.069194 0.0297129 0.0149542 -0.0525595
internal_weight=0 14103.5 7133.8 6658.7 2141.01 6969.65 4517.69 3930.68 1774.02 6826.53 3038.97 2448.43 1701.43 867.509 2816.26 1482.25 1043.14 1299.72 1599.78 906.51 1786.87 917.205 1710.58 1099.4 622.705 1167.53 778.308 1112.67 793.414 1739.25
internal_count=132027 99430 57226 32597 12931 42204 19666 21550 11461 55991 20654 14198 8165 4761 11501 7352 5411 8456 7655 6700 13179 6295 7069 4593 3628 5561 3861 6054 4505 12198
is_linear=0
shrinkage=0.1


Tree=6
num_leaves=31
num_cat=0
split_feature=1 4 4 4 4 6 6 3 1 3 11 6 11 6 1 9 3 9 3 1 1 9 3 11 11 9 3 1 1 6
split_gain=5075.78 1484.94 1275.23 1223.99 885.384 502.124 344.35 290.107 227.973 151.126 146.052 139.804 131.199 119.675 105.746 99.9167 129.441 73.0257 96.2885 69.0423 66.3956 65.7238 194.835 60.8753 59.5216 57.7935 119.038 56.5682 64.2087 41.339
threshold=0.15547235246622415 1.0000000180025095e-35 1.0000000180025095e-35 1.7281360238553518 1.7281360238553518 1.0000000180025095e-35 1.0000000180025095e-35 -0.042752289725449248 0.7191849579764239 -0.48614836439208337 1.0000000180025095e-35 1.0000000180025095e-35 1.0000000180025095e-35 1.0000000180025095e-35 0.7191849579764239 1.0000000180025095e-35 0.092395250058464343 1.0000000180025095e-35 -0.16917029298033442 0.83192747907846376 3.0867779011192629 1.0000000180025095e-35 0.092395250058464343 1.0000000180025095e-35 1.0000000180025095e-35 1.0000000180025095e-35 0.092395250058464343 0.7191849579764239 2.5230652956090629 1.0000000180025095e-35
decision_type=2 2 2 2 2 2 2 2 2 2 2 2 2 2 2 2 2 2 2 2 2 2 2 2 2 2 2 2 2 2
left_child=2 5 6 7 9 8 10 11 21 -4 17 14 19 24 -3 16 -8 18 -1 -7 -21 22 -2 -10 -9 26 -12 -14 -29 -11
right_child=1 3 4 -5 -6 12 15 13 23 29 25 -13 27 -15 -16 -17 -18 -19 -20 20 -22 -23 -24 -25 -26 -27 -28 28 -30 -31
leaf_value=0.0095226973864479952 0.10058612811758412 -0.052253119019955309 -0.097409463449859804 0.15065182470884175 0.11653698967615003 -0.0052818732874178641 -0.01933942195512027 0.01770121588671349 0.10652200739177781 -0.043327376300113789 0.054999146386225932 -0.07850433741782914 0.04057375981464538 -0.021466778628105421 0.019829207228536438 -0.0049156916187626139 -0.073676927737553619 0.026215557876888791 -0.04673048398915236 0.053859711574846918 -0.063399725604005683 0.1056716957703781 0.011122709225727272 0.1396369756213531 0.086924310497571211 0.065298733283469565 -0.013669400557522369 0.099550335453340924 0.016242598081122911 -0.077193265347987233
leaf_weight=538.55008664727211 537.56781420111656 484.10521484911442 4045.8086767196655 449.62874284386635 221.24798230826855 507.47650393843651 731.14324200153351 257.85633951425552 967.59722463786602 744.74267569184303 506.59490843117237 916.95086388289928 410.7930102199316 419.48802836239338 351.14103008806705 601.07302097976208 1094.9324735254049 414.89028435945511 699.51778231561184 584.02472871541977 52.641010165214539 466.05835407972336 444.89680735766888 1302.2496585845947 239.66663587093353 410.00459580123425 503.20550101995468 615.48372121155262 108.88441804051399 698.50592815876007
leaf_count=3029 2271 3870 37076 1820 885 3022 4968 1384 3916 5321 2393 7808 2155 2956 1918 3837 8477 2182 4708 2843 280 1935 2294 5247 1242 1899 3177 2727 510 5877
internal_value=0 0.0539833 -0.0464931 -0.00198414 -0.0795937 0.0830868 -0.0121262 -0.0276957 0.10574 -0.0874991 0.0101123 -0.0515454 0.0461304 0.0178757 -0.0219494 -0.0402801 -0.0519207 -0.0100933 -0.0222608 0.0222329 0.0441644 0.0747448 0.0600737 0.125521 0.0510473 0.033636 0.0207801 0.070217 0.0870278 -0.0597178
internal_weight=0 9116.51 11210.2 3118.84 5710.31 5997.67 5499.91 2669.21 3718.37 5489.06 3072.76 1752.2 2279.3 917.011 835.246 2427.15 1826.08 1652.96 1238.07 1144.14 636.666 1448.52 982.465 2269.85 497.523 1419.81 1009.8 1135.16 724.368 1443.25
internal_count=132027 48198 83829 20998 49159 27200 34670 19178 15663 48274 17388 13596 11537 5582 5788 17282 13445 9919 7737 6145 3123 6500 4565 9163 2626 7469 5570 5392 3237 11198
is_linear=0
shrinkage=0.1


Tree=7
num_leaves=31
num_cat=0
split_feature=1 4 4 4 4 6 6 6 1 1 3 11 9 3 9 3 3 3 11 9 3 9 3 9 3 1 9 6 1 11
split_gain=4204.13 1173.19 1158.08 1015.58 760.472 414.97 287.714 249.508 197.332 162.504 150.541 116.992 107.146 247.099 87.0344 117.005 86.7882 78.8413 67.8053 59.5621 81.2327 49.6316 151.023 44.7858 94.0822 41.4467 39.7635 38.8288 37.3433 36.6381
threshold=0.15547235246622415 1.0000000180025095e-35 1.0000000180025095e-35 1.7281360238553518 1.7281360238553518 1.0000000180025095e-35 1.0000000180025095e-35 1.0000000180025095e-35 0.83192747907846376 0.94467000018050373 -0.48614836439208337 1.0000000180025095e-35 1.0000000180025095e-35 -0.022221318311604048 1.0000000180025095e-35 0.092395250058464343 -0.16484799995460822 -0.036192728831953423 1.0000000180025095e-35 1.0000000180025095e-35 -0.16917029298033442 1.0000000180025095e-35 -0.78266752912096449 1.0000000180025095e-35 0.092395250058464343 0.7191849579764239 1.0000000180025095e-35 1.0000000180025095e-35 -0.40824025304397543 1.0000000180025095e-35
decision_type=2 2 2 2 2 2 2 2 2 2 2 2 2 2 2 2 2 2 2 2 2 2 2 2 2 2 2 2 2 2
left_child=2 5 6 7 10 8 11 9 18 17 -4 19 13 -7 15 28 -9 -3 -2 20 -1 22 -10 24 -13 -15 -11 -12 -8 -19
right_child=1 3 4 -5 -6 12 14 16 21 26 27 23 -14 25 -16 -17 -18 29 -20 -21 -22 -23 -24 -25 -26 -27 -28 -29 -30 -31
leaf_value=0.0085253829985023257 0.049656874458820249 -0.042319263670316236 -0.094792368358570855 0.13854036382275023 0.10521397331687646 0.064854745101893818 -0.038114503930180704 -0.075178549309234621 0.1316505501624988 0.035583919890929176 -0.040205416234111703 0.048462537776111772 0.072744405135673387 -0.041272156092040393 -0.0044381331374778194 -0.07003401500248424 -0.019513427585555673 -0.011844965810611634 0.089230764664886705 0.023288582293942952 -0.043412720554402991 0.1366748691784235 0.060378232730634508 0.057407662806181883 -0.012410438915798577 0.0056040403503288538 0.10249851425316495 -0.073745908418810305 0.0076153950929760883 0.056372008901744347
leaf_weight=541.24505218863487 837.3233959376812 568.73820228129625 3756.7272774279118 440.49610620737076 220.57599864900112 812.5390497893095 398.73273172974586 864.83292075991631 768.50239925086498 321.80691656470299 723.46353924274445 516.84591840207577 724.64332449436188 325.31238390505314 599.27487617731094 1039.6199940443039 414.24758759140968 168.88526406884193 896.5328324586153 420.04100698232651 678.79668375849724 744.56926141679287 484.89108331501484 419.19813832640648 499.05596318840981 448.88855853676796 122.65374249219894 660.06535385549068 323.40972761809826 147.48758642375469
leaf_count=3029 3778 4543 37076 1820 885 3769 2844 7803 3102 1545 5321 2393 3294 2055 3837 8477 2961 985 3806 2182 4708 3008 1969 1899 3177 2419 529 5877 2124 812
internal_value=0 0.0486657 -0.043625 -0.00190403 -0.0766048 0.0741812 -0.0111025 -0.0256194 0.0948041 0.0047144 -0.084407 0.00905553 0.0408846 0.0263347 -0.0373577 -0.0485556 -0.0571506 -0.0200595 0.0701195 -0.00918974 -0.0203715 0.116226 0.104078 0.0299069 0.018559 -0.0140929 0.0540497 -0.0562072 -0.0176345 0.0199566
internal_weight=0 9092.35 10797.1 3049.15 5360.83 6043.2 5436.22 2608.65 3731.82 1329.57 5140.26 3075.18 2311.38 1586.74 2361.04 1761.76 1279.08 885.111 1733.86 1640.08 1220.04 1997.96 1253.39 1435.1 1015.9 774.201 444.461 1383.53 722.142 316.373
internal_count=132027 48198 83829 20998 49159 27200 34670 19178 15663 8414 48274 17388 11537 8243 17282 13445 10764 6340 7584 9919 7737 8079 5071 7469 5570 4474 2074 11198 4968 1797
is_linear=0
shrinkage=0.1


Tree=8
num_leaves=31
num_cat=0
split_feature=1 4 4 4 4 6 6 3 6 1 11 1 1 11 11 11 11 3 1 6 11 9 3 6 1 1 1 1 9 3
split_gain=3514.36 1341.22 838.842 659.307 645.86 304.38 300.202 202.507 179.125 136.68 106.652 101.255 87.7207 80.8927 67.7045 62.8076 62.6384 61.213 55.244 52.3192 51.2358 51.2266 56.6786 42.168 38.8298 41.7031 38.4568 37.3267 37.0361 78.4166
threshold=0.38095739467030404 1.0000000180025095e-35 1.7281360238553518 1.0000000180025095e-35 1.7281360238553518 1.0000000180025095e-35 1.0000000180025095e-35 -0.48614836439208337 1.0000000180025095e-35 -0.40824025304397543 1.0000000180025095e-35 1.2828975634866235 1.1701550423845839 1.0000000180025095e-35 1.0000000180025095e-35 1.0000000180025095e-35 1.0000000180025095e-35 0.50911607934980252 -0.40824025304397543 1.0000000180025095e-35 1.0000000180025095e-35 1.0000000180025095e-35 0.27702047740692709 1.0000000180025095e-35 3.0867779011192629 0.83192747907846376 1.0000000180025095e-35 2.635807816711103 1.0000000180025095e-35 -0.016423845925275734
decision_type=2 2 2 2 2 2 2 2 2 2 2 2 2 2 2 2 2 2 2 2 2 2 2 2 2 2 2 2 2 2
left_child=1 6 7 5 8 11 9 -3 12 21 26 15 16 24 -11 -2 -5 -10 -12 20 -9 22 -1 -4 25 -7 -8 -15 29 -20
right_child=3 2 23 4 -6 13 10 19 17 14 18 -13 -14 27 -16 -17 -18 -19 28 -21 -22 -23 -24 -25 -26 -27 -28 -29 -30 -31
leaf_value=0.0063649758867434228 0.060641630205077179 -0.090361470668492816 0.12803638034806333 -0.03260171627917479 0.13029025606231076 -0.0034736902666703188 -0.053811470526571939 -0.051948707557171396 -0.063753580508106963 0.01448207719578317 -0.02927682902042968 0.11807422262533121 0.058710470514205741 0.069417691403593149 0.050324882280390559 0.096337654020913557 0.027539631573564888 -0.0088341146049343011 0.043336391580907824 -0.067284413410151553 -0.0013122888641459009 0.023672039431457244 -0.03702705920721415 0.045637274640854361 -0.062006607386201201 0.042068052090979288 -0.014209941074318914 0.0026978199699750978 0.05279388481291955 -0.03979691553740889
leaf_weight=561.06163170933723 907.81973817944527 3911.0351108685136 183.00866496562958 374.04143080115318 369.78283283114433 301.38495476543903 1223.1836075931787 462.66424076259136 621.3139566257596 1073.7215103954077 541.74851796030998 1079.3473681658506 316.8318807631731 878.42998780310154 1035.0033437609673 1078.5109739303589 322.48862522095442 301.40355263650417 213.11609810590744 705.27630197256804 351.73953519761562 418.44675153493881 649.48766204714775 94.010476306080818 51.93022446334362 604.10048939287663 306.70199942588806 92.699837490916252 178.65760006010532 242.65390252321959
leaf_count=3078 3760 41337 742 2420 1582 1563 9588 3443 5703 5859 4031 4432 1400 3850 4883 4400 1932 2065 1233 6577 2575 2147 4492 381 280 2843 2171 430 1010 1820
internal_value=0 -0.0343661 -0.069666 0.0534192 0.0091912 0.0738395 -0.00309837 -0.0783244 -0.0139382 0.0152671 -0.0284655 0.0934201 0.0150866 0.0427136 0.0320744 0.0800234 -0.00475669 -0.0458143 -0.00582383 -0.0473458 -0.0300789 -0.00648988 -0.0169159 0.100073 0.022087 0.0269098 -0.0458724 0.0630489 0.0142031 -0.000924138
internal_weight=0 12151.5 5707.73 7300.09 2305.86 4994.22 6443.78 5430.72 1936.08 3737.72 2706.06 3065.68 1013.36 1928.55 2108.72 1986.33 696.53 922.718 1176.18 1519.68 814.404 1629 1210.55 277.019 957.416 905.485 1529.89 971.13 634.428 455.77
internal_count=132027 95367 55055 36660 15102 21558 40312 53932 13520 20459 19853 12592 5752 8966 10742 8160 4352 7768 8094 12595 6018 9717 7570 1123 4686 4406 11759 4280 4063 3053
is_linear=0
shrinkage=0.1


Tree=9
num_leaves=31
num_cat=0
split_feature=1 4 4 4 4 6 6 3 1 3 6 11 9 3 9 3 6 11 9 3 9 3 9 3 1 1 6 1 1 1
split_gain=2936.77 947.258 738.805 710.311 563.106 292.534 197.647 193.947 161.98 146.295 100.927 83.3031 80.016 187.008 73.6672 103.793 68.553 63.6456 53.2307 152.35 52.8254 162.312 43.1702 62.3977 37.5064 33.8449 33.0518 32.5794 30.7771 30.7596
threshold=0.15547235246622415 1.0000000180025095e-35 1.0000000180025095e-35 1.7281360238553518 1.7281360238553518 1.0000000180025095e-35 1.0000000180025095e-35 -0.042752289725449248 0.7191849579764239 -0.48614836439208337 1.0000000180025095e-35 1.0000000180025095e-35 1.0000000180025095e-35 -0.022221318311604048 1.0000000180025095e-35 0.31789653140868585 1.0000000180025095e-35 1.0000000180025095e-35 1.0000000180025095e-35 0.092395250058464343 1.0000000180025095e-35 -0.78266752912096449 1.0000000180025095e-35 0.20404714221110784 1.3956400845886636 0.94467000018050373 1.0000000180025095e-35 0.94467000018050373 -0.21432311674846694 1.3956400845886636
decision_type=2 2 2 2 2 2 2 2 2 2 2 2 2 2 2 2 2 2 2 2 2 2 2 2 2 2 2 2 2 2
left_child=1 6 5 7 9 8 11 10 18 -3 17 22 13 -7 15 -8 25 24 19 -2 21 -10 23 -1 -4 -9 -11 -19 -13 -23
right_child=2 4 3 -5 -6 12 14 16 20 26 -12 28 -14 -15 -16 -17 -18 27 -20 -21 -22 29 -24 -25 -26 -27 -28 -29 -30 -31
leaf_value=0.006009787695401776 0.074859327084172644 -0.089757005880144389 -0.05529188777208828 0.12007838177668993 0.086885502082859431 0.052874049353012126 -0.014700240291138523 0.019101740449639484 0.11077420755980719 -0.034973120210440106 -0.068474971083156547 0.014640205268125848 0.059687900308262112 -0.015312824855582292 -0.0016692323244320304 -0.065101348822740129 -0.015813113241423964 -0.0087526810932012731 0.079814316121487067 -0.0026353004274599088 0.11502273715699765 0.021378302773081455 0.018634351249809496 -0.039702908485316747 0.030338479928443098 0.07188873933140616 -0.06717041998599077 0.054172067458469836 0.046175484374211095 0.069220935630156119
leaf_weight=560.43572641909122 553.83400167524815 3246.0902385413647 374.90663831681013 413.63765701651573 215.78631354868412 834.68597908318043 731.19134030491114 316.89724609255791 837.7546322196722 689.32346761226654 774.30154836177826 1009.4729172736406 742.85714374482632 776.29432624578476 588.13864715397358 926.09863675385714 401.57261988520622 236.42929337918758 477.20295509696007 468.1053229868412 816.45467804372311 326.85300254821777 428.40923401713371 639.14316654205322 59.231723248958588 196.94964115321636 593.19300813227892 126.20087270438671 446.30883751809597 228.21547834575176
leaf_count=3122 2271 37076 3010 1820 885 3769 5241 1797 3489 5321 7808 5356 3294 4474 3837 8204 2956 1917 1935 2294 3409 1331 2182 4615 266 829 5877 595 2113 934
internal_value=0 -0.0384393 0.0402506 -0.00126023 -0.0709392 0.060109 -0.00950573 -0.0214454 0.0776101 -0.0784595 -0.0427641 0.0069275 0.0325365 0.0200164 -0.0320744 -0.0428645 0.0151424 -0.0177782 0.052239 0.0393625 0.0948262 0.0829872 -0.00861469 -0.0183462 -0.0436089 0.0393342 -0.0498651 0.0131461 0.0243082 0.0410487
internal_weight=0 10073.6 8962.38 2900.13 4744.39 6062.26 5329.2 2486.49 3708.42 4528.61 1571.07 3083.77 2353.84 1610.98 2245.43 1657.29 915.42 796.769 1499.14 1021.94 2209.28 1392.82 1627.99 1199.58 434.138 513.847 1282.52 362.63 1455.78 555.068
internal_count=132027 83829 48198 20998 49159 27200 34670 19178 15663 48274 13596 17388 11537 8243 17282 13445 5582 5788 6500 4565 9163 5754 9919 7737 3276 2626 11198 2512 7469 2265
is_linear=0
shrinkage=0.1


Tree=10
num_leaves=31
num_cat=0
split_feature=1 4 4 6 6 3 4 4 1 1 9 11 11 1 1 9 3 4 3 4 6 11 3 1 1 6 6 9 3 1
split_gain=2456.17 1143.42 677.469 380.949 232.882 207.325 187.119 146.296 140.215 116.782 106.408 105.625 92.2131 65.8461 62.3151 53.3557 146.59 52.3402 87.0551 63.8397 51.4377 48.6233 48.4847 48.4081 46.9939 42.1338 38.6663 36.979 42.0963 33.925
threshold=0.49369991577234401 1.0000000180025095e-35 1.7281360238553518 1.0000000180025095e-35 1.0000000180025095e-35 -0.48614836439208337 1.0000000180025095e-35 1.7281360238553518 1.3956400845886636 -0.40824025304397543 1.0000000180025095e-35 1.0000000180025095e-35 1.0000000180025095e-35 2.635807816711103 3.0867779011192629 1.0000000180025095e-35 0.31789653140868585 1.0000000180025095e-35 0.092395250058464343 1.7281360238553518 1.0000000180025095e-35 1.0000000180025095e-35 0.61325263819457543 -0.40824025304397543 0.83192747907846376 1.0000000180025095e-35 1.0000000180025095e-35 1.0000000180025095e-35 0.27702047740692709 -0.40824025304397543
decision_type=2 2 2 2 2 2 2 2 2 2 2 2 2 2 2 2 2 2 2 2 2 2 2 2 2 2 2 2 2 2
left_child=1 4 5 8 9 25 13 22 10 27 12 29 17 24 -10 16 -11 18 -2 -19 21 -7 -8 -13 -5 -3 -4 28 -1 -6
right_child=3 2 26 6 11 20 7 -9 14 15 -12 23 -14 -15 -16 -17 -18 19 -20 -21 -22 -23 -24 -25 -26 -27 -28 -29 -30 -31
leaf_value=0.0047066875825535386 0.072923719574240653 -0.072959098356471963 0.11089284710723038 0.016434442304567566 -0.056598703948174824 -0.044840842102894511 -0.052474963598575702 0.095005721350318276 0.10158945096767502 0.045693416422144223 0.084275833688726667 -0.024350876729509967 0.06312563492734187 -0.018260442150664229 -0.0037057712166181003 0.051205498459151927 -0.013923887926945114 -0.033601118622635054 -0.0069695379499981726 0.11505068195274107 -0.06043839721509954 0.0038943655508711333 0.0016434021631771265 0.015849294187359274 0.054520169644718841 -0.094771987378254777 0.033981419175816645 0.019242515310267456 -0.032927139977027661 -0.026744560577339295
leaf_weight=565.3864838629961 291.4229538589716 1707.561845831573 195.45429666340351 448.87463374435902 707.13387593626976 463.64983151853085 502.67149496078491 98.454168751835823 1158.0624683201313 915.35959476232529 858.7140554189682 519.13008534163237 924.74825157225132 190.38146205246449 59.072134360671043 733.07930921018124 750.67262265086174 258.14970761537552 256.36959627270699 32.530808493494987 678.56449484080076 366.57717749476433 246.83482065796852 708.16730123013258 1164.3800585269928 1839.4754666760564 98.210415989160538 426.19316558539867 626.66893076896667 824.38872291147709
leaf_count=3078 1195 20423 827 2094 5986 3604 5006 457 5003 4085 3700 4031 4238 925 255 3123 4625 1661 1072 151 6884 2691 1694 4425 5146 22389 408 2147 4492 6212
internal_value=0 -0.0279262 -0.0624873 0.0482955 -0.000641817 -0.0710639 0.0191449 -0.019598 0.0684295 0.0147209 0.0554085 -0.0230128 0.0413498 0.0373594 0.0964791 0.0287237 0.0188313 0.0173332 0.0355333 -0.0169651 -0.0400149 -0.0233224 -0.0346522 -0.00115483 0.0439231 -0.0842712 0.0851713 -0.00603881 -0.0150776 -0.0405288
internal_weight=0 12125.7 5349.49 6490.67 6776.18 5055.83 2651.6 847.96 3839.07 4017.36 2621.94 2758.82 1763.22 1803.64 1217.13 2399.11 1666.03 838.473 547.793 290.681 1508.79 830.227 749.506 1227.3 1613.25 3547.04 293.665 1618.25 1192.06 1531.52
internal_count=132027 99430 57226 32597 42204 55991 15322 7157 17275 21550 12017 20654 8317 8165 5258 11833 8710 4079 2267 1812 13179 6295 6700 8456 7240 42812 1235 9717 7570 12198
is_linear=0
shrinkage=0.1


Tree=11
num_leaves=31
num_cat=0
split_feature=1 4 4 4 4 6 3 3 11 1 6 6 11 9 3 11 11 11 9 3 9 3 1 1 1 6 9 3 11 3
split_gain=2070.87 766.011 491.276 524.857 418.103 217.98 140.694 139.599 136.804 133.686 79.3764 76.4631 72.6928 58.3625 107.675 57.3275 52.3183 43.9938 32.5772 85.7186 30.8926 62.4347 30.3565 33.2427 29.8134 28.1343 28.0801 42.3662 27.3083 25.5445
threshold=0.15547235246622415 1.0000000180025095e-35 1.0000000180025095e-35 1.7281360238553518 1.7281360238553518 1.0000000180025095e-35 -0.042752289725449248 -0.48614836439208337 1.0000000180025095e-35 1.0574125212825438 1.0000000180025095e-35 1.0000000180025095e-35 1.0000000180025095e-35 1.0000000180025095e-35 0.092395250058464343 1.0000000180025095e-35 1.0000000180025095e-35 1.0000000180025095e-35 1.0000000180025095e-35 0.20404714221110784 1.0000000180025095e-35 -0.21502533583447367 0.7191849579764239 2.5230652956090629 3.5377479855274223 1.0000000180025095e-35 1.0000000180025095e-35 -0.16917029298033442 1.0000000180025095e-35 -0.062187018178665773
decision_type=2 2 2 2 2 2 2 2 2 2 2 2 2 2 2 2 2 2 2 2 2 2 2 2 2 2 2 2 2 2
left_child=1 8 5 6 7 9 11 25 10 15 26 17 20 14 -10 -2 -8 -4 19 24 21 -7 29 -24 -11 -3 27 -1 -9 -14
right_child=2 4 3 -5 -6 12 16 28 13 18 -12 -13 22 -15 -16 -17 -18 -19 -20 -21 -22 -23 23 -25 -26 -27 -28 -29 -30 -31
leaf_value=0.0034013782418077388 0.033324995752343378 -0.074479746058993587 -0.03871782888061321 0.10722906087249154 0.072601071902432354 0.02605547734249038 -0.010762089251767203 -0.057088367802896473 0.024739164347120382 0.10552421632733672 -0.042613692877658926 -0.061880936534177859 0.056407893047406947 0.033420631884984058 -0.025483012872613522 0.065280343537790317 0.03711382995136684 0.008990798545162498 0.10956352128887337 0.037885898875893352 0.033273891229341358 -0.028804388309435377 0.064404622924585889 0.0053163973634390831 -0.10337090671661663 -0.094489001128986824 0.012910636421534491 -0.034554925026239684 -0.026564126034350984 0.0051516696397837375
leaf_weight=554.35640949010849 1065.9174105077982 1359.5379666090012 409.74693345278502 384.64696906507015 208.46837073564529 407.39279738068581 477.01632981002331 686.88998163491488 841.08318956196308 521.39795888960361 1204.3480406552553 695.28163301199675 147.19085225462914 706.54835119843483 866.89445578306913 1186.1156868040562 437.69216126203537 365.87376039475203 516.61352594196796 331.00127495825291 357.70086877048016 422.69509701430798 647.41670681536198 111.62942378222942 6.9228175282478324 1454.4933217763901 438.11042085289955 626.31194533407688 511.2350612282753 286.4584564268589
leaf_count=3029 4646 17744 3276 1820 885 1905 3025 6541 4413 2313 10300 7808 672 3552 6486 4990 2557 2512 2309 1375 1639 2601 2727 510 30 19332 2182 4708 4657 1483
internal_value=0 -0.0337739 0.0336684 -0.00117087 -0.0654762 0.0497314 -0.0186489 -0.0726506 -0.00822737 0.06516 -0.0231736 -0.0377997 0.0262174 0.00924815 -0.000751408 0.0501554 0.0121468 -0.0162128 0.0897184 0.0777878 0.00870646 -0.00188011 0.0436562 0.0557148 0.102787 -0.084822 -0.00871046 -0.0167334 -0.0440638 0.0225492
internal_weight=0 9458.28 8778.71 2770.26 4220.62 6008.45 2385.61 4012.16 5237.65 3627.97 2823.13 1470.9 2380.48 2414.53 1707.98 2252.03 914.708 775.621 1375.94 859.322 1187.79 830.088 1192.7 759.046 528.321 2814.03 1618.78 1180.67 1198.13 433.649
internal_count=132027 83829 48198 20998 49159 27200 19178 48274 34670 15663 20219 13596 11537 14451 10899 9636 5582 5788 6027 3718 6145 4506 5392 3237 2343 37076 9919 7737 11198 2155
is_linear=0
shrinkage=0.1


Tree=12
num_leaves=31
num_cat=0
split_feature=1 4 4 4 4 1 3 6 3 6 6 11 1 9 3 1 6 11 11 3 9 9 3 9 3 9 3 6 1 6
split_gain=1729.99 631.029 449.401 501.768 304.532 190.51 142.709 140.269 113.381 113.2 71.4586 67.7236 59.2271 52.925 77.7783 52.0045 46.748 44.9543 43.9362 40.5729 95.8556 39.7383 74.6523 33.1623 56.4205 27.2087 69.0646 26.2249 25.3359 24.9538
threshold=1.0000000180025095e-35 1.0000000180025095e-35 1.0000000180025095e-35 1.7281360238553518 1.7281360238553518 0.7191849579764239 -0.042752289725449248 1.0000000180025095e-35 -0.48614836439208337 1.0000000180025095e-35 1.0000000180025095e-35 1.0000000180025095e-35 2.5230652956090629 1.0000000180025095e-35 0.092395250058464343 0.7191849579764239 1.0000000180025095e-35 1.0000000180025095e-35 1.0000000180025095e-35 -0.14901730346671471 1.0000000180025095e-35 1.0000000180025095e-35 0.24918917375345825 1.0000000180025095e-35 0.31789653140868585 1.0000000180025095e-35 -0.23897946151138758 1.0000000180025095e-35 0.83192747907846376 1.0000000180025095e-35
decision_type=2 2 2 2 2 2 2 2 2 2 2 2 2 2 2 2 2 2 2 2 2 2 2 2 2 2 2 2 2 2
left_child=1 9 5 6 8 11 10 18 29 17 15 21 23 14 -11 -4 -8 -1 25 -13 -21 22 -2 24 -9 26 -7 -6 -18 -3
right_child=2 4 3 -5 27 7 16 12 -10 13 -12 19 -14 -15 -16 -17 28 -19 -20 20 -22 -23 -24 -25 -26 -27 -28 -29 -30 -31
leaf_value=-0.0091764540465836958 0.024166578410677691 -0.073332522817025764 -0.039358060819658668 0.10181249408738852 0.089437904777776231 0.076683599424912804 0.028113997237793561 0.054451180666597702 -0.044627061614270602 -0.01182794787361445 -0.060796678039483354 0.060858420715794982 -0.011899566735137774 -0.0015087067383766578 -0.059123868243771388 0.010480712016723379 -0.037644689091878666 0.016418539643451174 0.087754722468804419 -0.0064494343755067095 0.058506832132613096 0.033932847312306912 -0.030082837653399155 0.066279021899802101 0.0025847746825173072 0.081875095431946002 0.0073820277220167279 0.01048665361082194 0.011076935059413144 -0.093563405928739907
leaf_weight=1442.1016480773687 518.43566479533911 1183.9541153907776 501.17419682443142 390.71478293836117 115.96754452586174 319.97634698450565 584.74026966094971 485.41658796370029 1063.4553552493453 614.22034592926502 747.77118416130543 535.71358378231525 228.53674672544003 528.18640907108784 801.33295469731092 359.58139176666737 232.96448827534914 1309.1872027218342 1179.6946527510881 452.50627842545509 456.23973083496094 428.71898417174816 496.67287560552359 422.87471652030945 369.28894755244255 319.27756914496422 261.18499201536179 66.026183933019638 196.97395664453506 1256.977332919836
leaf_count=9061 2459 16448 5166 1918 509 1412 3076 1988 10340 4587 9050 2270 1102 3560 7898 1918 2003 6764 5247 2382 1938 1953 3142 1718 1885 1420 1084 278 1359 18092
internal_value=0 -0.034362 0.0279865 -0.00391104 -0.065328 0.0428349 -0.0196581 0.058229 -0.071878 -0.0100485 -0.0381831 0.0237208 0.0349868 -0.0285222 -0.0386018 -0.0185379 0.00970886 0.0030028 0.0750575 0.0390301 0.0261621 0.00840484 -0.00237661 0.043374 0.0320415 0.0584225 0.0455382 0.0607949 -0.0153231 -0.0837506
internal_weight=0 8381.41 9488.46 3013.92 3686.38 6474.54 2623.21 3586.25 3504.39 4695.03 1608.53 2888.29 1506.12 1943.74 1415.55 860.756 1014.68 2751.29 2080.13 1444.46 908.746 1443.83 1015.11 1277.58 854.706 900.439 581.161 181.994 429.938 2440.93
internal_count=132027 77537 54490 24490 45667 30000 22572 15856 44880 31870 16134 14144 6693 16045 12485 7084 6438 15825 9163 6590 4320 7554 5601 5591 3873 3916 2496 787 3362 34540
is_linear=0
shrinkage=0.1


Tree=13
num_leaves=31
num_cat=0
split_feature=1 4 4 6 3 1 1 4 4 9 3 6 4 4 1 6 1 6 6 3 3 9 11 11 9 3 9 3 6 3
split_gain=1443.79 780.022 424.273 231.578 183.172 145.047 107.677 97.1769 80.5991 76.9937 194.891 63.0452 62.1667 109.839 48.8058 45.2177 42.9802 42.9775 39.1292 37.9843 37.8371 122.121 37.428 36.9729 32.8034 69.1496 31.8759 31.5781 31.3025 30.0853
threshold=0.49369991577234401 1.0000000180025095e-35 1.7281360238553518 1.0000000180025095e-35 -0.48614836439208337 -0.40824025304397543 1.2828975634866235 1.0000000180025095e-35 1.7281360238553518 1.0000000180025095e-35 -0.029221221755530869 1.0000000180025095e-35 1.0000000180025095e-35 1.7281360238553518 3.9887180699355822 1.0000000180025095e-35 3.0867779011192629 1.0000000180025095e-35 1.0000000180025095e-35 0.72983977129448074 -0.21502533583447367 1.0000000180025095e-35 1.0000000180025095e-35 1.0000000180025095e-35 1.0000000180025095e-35 0.349119968083412 1.0000000180025095e-35 1.0733878544843043 1.0000000180025095e-35 1.5334255527164411
decision_type=2 2 2 2 2 2 2 2 2 2 2 2 2 2 2 2 2 2 2 2 2 2 2 2 2 2 2 2 2 2
left_child=1 5 4 6 17 11 12 16 26 10 -7 -1 20 -14 22 23 24 -3 29 -11 -2 -22 -8 -6 25 -5 -9 -21 -4 -12
right_child=3 2 28 7 15 9 14 8 -10 19 18 -13 13 -15 -16 -17 -18 -19 -20 27 21 -23 -24 -25 -26 -27 -28 -29 -30 -31
leaf_value=-0.0056684024267725352 0.071378925499464285 -0.06421226427156293 0.090714598155830009 0.042842551096595863 -0.036378543715643731 0.028164927045066276 0.058873898874650603 -0.038840252143724247 0.07582396516152741 -0.0087485736488495756 -0.017644278084308771 -0.036392273712021923 0.00035451502414951758 0.11120142169871375 -0.15124751666649361 -0.052803539691402696 -0.037351552037669475 -0.08854033527205564 -0.045341236618214639 0.061743414371041909 0.0030935134908934995 0.07154778548273534 0.093144631695959754 0.0072551338373013979 0.05031434442357921 -0.0063021764515853833 0.011415969501404128 0.025531975129231263 0.019641905154356723 0.044656804370105468
leaf_weight=1604.6961981803179 602.16180819272995 1440.3540089279413 179.31423199176788 643.38368526101112 425.19942911714315 1414.443909406662 568.43274948000908 522.79847005009651 86.26393173635006 184.13909527659416 681.23158422112465 1144.0372942090034 621.78341326117516 104.404624953866 9.3467327058315259 607.9230564981699 98.334902971982956 1464.4452897235751 558.18873922526836 414.74350352585316 484.33461666107178 564.18058627843857 725.29227267205715 357.44890542328358 567.57621866464615 515.87889555096626 166.36947183310986 574.27345195412636 94.694065392017365 87.462475925683975
leaf_count=9717 2609 20423 827 2644 3604 7084 2601 5550 457 885 4252 10017 3628 550 41 6884 510 22389 4962 1985 1988 2472 3386 2691 2311 2700 1150 2759 408 543
internal_value=0 -0.0226712 -0.0544931 0.037197 -0.0621893 -0.000848903 0.0533394 0.014355 -0.0153018 0.0115146 0.00234 -0.0184558 0.0406738 0.0162911 0.0764419 -0.032343 0.0269549 -0.0764772 -0.0251891 0.032953 0.0514006 0.0399271 0.0780869 -0.0164503 0.0306168 0.0209728 -0.0267081 0.0407172 0.0661527 -0.0105556
internal_weight=0 11232.6 4569.38 6280.54 4295.37 6663.22 3679.94 2600.61 775.432 3914.48 2741.33 2748.73 2376.87 726.188 1303.07 1390.57 1825.17 2904.8 1326.88 1173.16 1650.68 1048.52 1293.73 782.648 1726.84 1159.26 689.168 989.017 274.008 768.694
internal_count=132027 99430 57226 32597 55991 42204 17275 15322 7157 22470 16841 19734 11247 4178 6028 13179 8165 42812 9757 5629 7069 4460 5987 6295 7655 5344 6700 4744 1235 4795
is_linear=0
shrinkage=0.1


Tree=14
num_leaves=31
num_cat=0
split_feature=1 4 11 4 4 4 1 3 11 6 6 6 3 6 1 1 9 3 4 4 4 4 6 1 1 1 9 3 1 1
split_gain=1228.48 511.358 295.149 225.928 191.839 189.06 128.647 106.267 86.074 70.2954 65.5063 65.0311 59.0337 55.19 50.3919 40.2755 37.4081 63.6933 34.3042 33.2749 37.7555 31.4151 25.4319 25.2154 24.2247 26.1765 23.8798 44.6978 22.2915 26.3289
threshold=1.0000000180025095e-35 1.0000000180025095e-35 1.0000000180025095e-35 1.7281360238553518 1.0000000180025095e-35 1.7281360238553518 0.83192747907846376 -0.48614836439208337 1.0000000180025095e-35 1.0000000180025095e-35 1.0000000180025095e-35 1.0000000180025095e-35 0.52825316296492064 1.0000000180025095e-35 1.0574125212825438 2.1848377323029431 1.0000000180025095e-35 0.092395250058464343 1.0000000180025095e-35 1.7281360238553518 1.0000000180025095e-35 1.7281360238553518 1.0000000180025095e-35 0.7191849579764239 3.9887180699355822 1.2828975634866235 1.0000000180025095e-35 -0.23897946151138758 0.83192747907846376 3.0867779011192629
decision_type=2 2 2 2 2 2 2 2 2 2 2 2 2 2 2 2 2 2 2 2 2 2 2 2 2 2 2 2 2 2
left_child=1 8 4 7 10 12 9 22 13 19 14 24 23 -1 -2 -13 17 -10 -11 20 -4 -20 -3 -6 25 -8 27 -16 -12 -30
right_child=2 3 6 -5 5 -7 11 -9 16 18 28 15 -14 -15 26 -17 -18 -19 21 -21 -22 -23 -24 -25 -26 -27 -28 -29 29 -31
leaf_value=-0.0086065831576584689 0.021039577643256327 -0.067868207272211753 0.045097816337148128 0.050586927600149482 -0.065610890959714285 0.080799525886233195 0.058421095977532846 -0.039402336107988115 0.017919609536062735 0.01628537789954301 -0.011280947237917326 0.051033685154284081 -0.0072934484982490584 -0.038896866430545546 0.074268788661548929 0.00493287405091156 0.026150305217842385 -0.023229880229562652 -0.035932968102283053 0.10990230837496168 0.0094072507107367618 0.083690314577712671 -0.089737396436709888 -0.031319250977809646 -0.15226032240767201 0.086445124927239159 0.08568030799209729 0.0032182979418577205 0.020618372889636347 -0.055406812437384947
leaf_weight=1434.8606977164745 1224.442899286747 1052.8313612937927 1053.1108907908201 174.68490599095821 504.74443843588233 155.38624265789986 632.64459435641766 1001.0116019770503 754.4308855086565 594.42227618396282 604.21566516160965 672.57598945498466 475.58260499686003 1035.7212994769216 195.61548173427582 263.84871707111597 647.42400793731213 750.19402374327183 261.50176222994924 61.901925072073936 412.49240011721849 23.965645298361778 1074.4153543561697 372.81654054671526 4.7832559794187537 704.45926876366138 194.10024116933346 161.76158747076988 630.11157430708408 49.102902919054031
leaf_count=9061 5504 16448 4511 787 6431 830 2942 10340 3997 2969 3734 3585 3184 9588 939 1579 3245 5979 3200 322 3260 118 18092 3226 21 3386 944 682 2843 280
internal_value=0 -0.0300404 0.0236027 -0.0600902 0.0055145 -0.0236698 0.0412361 -0.0662705 -0.00856937 0.0251168 0.0199049 0.0582686 -0.0356664 -0.0213049 0.0323444 0.0380442 0.00605122 -0.0025972 0.00260209 0.038086 0.0350527 -0.0258903 -0.0789137 -0.0510427 0.0723821 0.0731857 0.0574444 0.0421088 0.00269209 0.0151222
internal_weight=0 7925.57 9253.59 3302.94 4567.88 1508.53 4685.71 3128.26 4622.63 2407.39 3059.35 2278.31 1353.14 2470.58 1775.92 936.425 2152.05 1504.62 879.89 1527.51 1465.6 285.467 2127.25 877.561 1341.89 1337.1 551.477 357.377 1283.43 679.214
internal_count=132027 77537 54490 45667 28597 13671 25893 44880 31870 14380 14926 11513 12841 18649 8069 5164 13221 9976 6287 8093 7771 3318 34540 9657 6349 6328 2565 1621 6857 3123
is_linear=0
shrinkage=0.1


Tree=15
num_leaves=31
num_cat=0
split_feature=1 4 9 4 3 4 4 3 1 6 11 6 3 1 6 9 3 3 9 3 3 1 6 6 1 1 6 11 7 1
split_gain=1018.8 455.842 253.906 204.903 283.418 221.454 195.241 103.021 74.3648 71.8592 58.5351 49.1888 46.7099 42.5564 42.4213 39.1924 61.4532 38.2392 31.7886 59.0278 32.0664 29.8211 28.459 27.544 27.361 26.7756 25.7371 22.1083 21.6872 20.1555
threshold=1.0000000180025095e-35 1.0000000180025095e-35 1.0000000180025095e-35 1.0000000180025095e-35 -0.21502533583447367 1.7281360238553518 1.7281360238553518 -0.48614836439208337 0.83192747907846376 1.0000000180025095e-35 1.0000000180025095e-35 1.0000000180025095e-35 0.73940338152000817 0.38095739467030404 1.0000000180025095e-35 1.0000000180025095e-35 0.31789653140868585 1.3883315687663886 1.0000000180025095e-35 0.20404714221110784 1.8102618985992598 0.83192747907846376 1.0000000180025095e-35 1.0000000180025095e-35 0.7191849579764239 2.635807816711103 1.0000000180025095e-35 1.0000000180025095e-35 0.26410187554576808 3.5377479855274223
decision_type=2 2 2 2 2 2 2 2 2 2 2 2 2 2 2 2 2 2 2 2 2 2 2 2 2 2 2 2 2 2
left_child=1 9 3 4 11 10 7 26 12 18 24 13 -4 -2 -10 16 -11 22 19 -1 -21 -6 -14 -12 -5 -16 -3 -9 -13 -15
right_child=2 6 8 5 21 -7 -8 27 14 15 23 28 17 29 25 -17 -18 -19 -20 20 -22 -23 -24 -25 -26 -27 -28 -29 -30 -31
leaf_value=0.012831555701767618 0.030188025623116045 -0.064989761961487674 -0.0098630506934078484 -0.057778294654154863 -0.016383232307847908 0.08048103516194427 0.046352085154693974 -0.049850296052553589 0.077904600410468927 -0.0093950833534117758 0.0074858253777072246 0.014708699092906771 0.05941886139895617 0.070290715618538238 0.050667934648993398 0.00016063068977227913 -0.052588182141992693 -0.00030514023400017657 0.019383655613156914 -0.025320008014537588 0.07640471495868284 0.0084440832482051802 0.024037442568131787 -0.028921039783707653 -0.024499694452610393 -0.013384440306625306 -0.087759452586885403 -0.019405019492369613 0.045506122355079448 -0.10765393766484628
leaf_weight=985.93319244682789 387.89554786682129 992.68234038352966 239.21767568215728 555.89267374947667 1073.0545633509755 215.75066496431828 171.73952953517437 549.1550764515996 800.39917296171188 623.31048232316971 507.9633915796876 507.15435855090618 634.96616877615452 1002.5706275850534 507.70989822596312 521.12973755598068 698.54729869216681 209.2207765430212 790.66239097714424 934.35418435186148 32.051277913153172 881.00914914906025 354.12303628772497 351.67733957618475 444.70064500719309 74.8899906873703 992.97800447046757 421.65110006928444 416.37688973546028 6.4060339182615271
leaf_count=4992 1589 16448 1254 7035 6158 1201 787 6067 3927 4845 3583 2267 2908 4666 2350 3560 7640 1082 3697 6903 233 4132 2075 4315 3676 383 18092 4273 1861 28
internal_value=0 -0.02787 0.021441 0.010352 0.0228702 -0.0154231 -0.0573027 -0.0633239 0.046408 -0.00779323 -0.0265461 0.0465 0.0304814 0.0583386 0.0629625 -0.0230645 -0.0322209 0.0385354 0.00246737 -0.00438342 -0.0219463 -0.00518959 0.0467513 -0.00740815 -0.0429881 0.0424344 -0.0763763 -0.036627 0.0285938 0.0691609
internal_weight=0 7714.19 9170.98 6350.45 4274.47 2075.98 3128.21 2956.47 2820.53 4585.99 1860.23 2320.4 1437.53 1396.87 1383 1842.99 1321.86 1198.31 2743 1952.34 966.405 1954.06 989.089 859.641 1000.59 582.6 1985.66 970.806 923.531 1008.98
internal_count=132027 77537 54490 40511 20701 19810 45667 44880 13979 31870 18609 10411 7319 6283 6660 16045 12485 6065 15825 12128 7136 10290 4983 7898 10711 2733 34540 10340 4128 4694
is_linear=0
shrinkage=0.1


Tree=16
num_leaves=31
num_cat=0
split_feature=1 4 11 4 4 4 3 1 11 6 9 3 6 6 6 9 1 6 3 9 3 1 1 4 4 4 4 6 6 1
split_gain=844.989 404.331 223.689 168.492 128.547 137.648 99.1083 96.8211 69.9353 53.9249 50.2919 94.062 44.0628 43.6687 40.6883 29.847 27.3326 25.9356 25.1942 24.0664 42.7456 23.6181 21.8319 21.6378 25.6027 21.4479 23.2059 20.9759 20.9123 21.9201
threshold=1.0000000180025095e-35 1.0000000180025095e-35 1.0000000180025095e-35 1.7281360238553518 1.0000000180025095e-35 1.7281360238553518 -0.48614836439208337 0.7191849579764239 1.0000000180025095e-35 1.0000000180025095e-35 1.0000000180025095e-35 -0.21502533583447367 1.0000000180025095e-35 1.0000000180025095e-35 1.0000000180025095e-35 1.0000000180025095e-35 1.2828975634866235 1.0000000180025095e-35 0.70277381735565192 1.0000000180025095e-35 0.24918917375345825 3.5377479855274223 3.0867779011192629 1.7281360238553518 1.0000000180025095e-35 1.0000000180025095e-35 1.7281360238553518 1.0000000180025095e-35 1.0000000180025095e-35 1.0574125212825438
decision_type=2 2 2 2 2 2 2 2 2 2 2 2 2 2 2 2 2 2 2 2 2 2 2 2 2 2 2 2 2 2
left_child=1 8 4 6 10 13 17 12 14 16 11 -2 23 18 -1 22 -9 -3 -6 20 -10 -18 -11 24 -4 -14 -27 -8 29 -12
right_child=2 3 7 -5 5 -7 27 9 19 15 28 -13 25 -15 -16 -17 21 -19 -20 -21 -22 -23 -24 -25 -26 26 -28 -29 -30 -31
leaf_value=-0.0079592408026844582 0.027133171124837555 -0.062104213076683346 0.036803762110155576 0.04245167156712118 -0.028073986822586484 0.071747139874241778 -0.020692118053103017 0.04803150090525321 0.015229838867950263 0.024286615187573989 0.033020725609429834 -0.0154561735174065 0.011472702440533994 -0.051427830150863829 -0.03437042917285444 0.055414118250190339 0.078212733335958906 -0.085745586231789753 0.012077065649267225 0.022034944836473221 -0.018789351572660651 -0.049131386515147826 -0.040242382687744577 0.096821575408924249 0.0058123315698207743 -0.03358774007521894 0.078381539924481464 -0.050713496079656056 0.016410246699962695 0.075282256092553887
leaf_weight=1426.3206524252892 1069.3094103783369 937.81847167015076 909.97188471257687 168.91982996463776 462.87777851894498 143.6372634023428 525.27309134602547 799.69474348425865 775.18000423163176 644.92435374110937 384.72480629384518 1006.8715095221996 529.51997101306915 592.15177763625979 986.90154036879539 332.42530144751072 657.13248118758202 918.52267803251743 235.94196369498968 655.53026108443737 705.51440247893333 14.894327715039251 57.069709144532681 46.975578159093857 377.00367981940508 224.18390290811658 20.175543397665024 417.88838051259518 390.60723747313023 180.22286951541901
leaf_count=9061 4884 16448 3910 787 4347 830 4871 3827 4113 3761 1604 5711 2680 7193 9588 1546 3340 18092 1301 3245 5863 67 417 263 3035 2943 104 5469 1783 944
internal_value=0 -0.0258279 0.0194992 -0.0545382 0.00354651 -0.0211158 -0.0603905 0.0349414 -0.00709501 0.0482265 0.0152166 0.0064789 0.019146 -0.031448 -0.0187603 0.0307298 0.0605243 -0.073802 -0.0145178 0.00608283 -0.000979467 0.0753904 0.0190406 0.0301585 0.0277252 0.000163571 -0.024343 -0.0339937 0.0342015 0.0465025
internal_weight=0 7517.87 9080.32 2968.42 4466.34 1434.61 2799.5 4613.97 4549.45 2506.14 3031.74 2076.18 2107.83 1290.97 2413.22 1034.42 1471.72 1856.34 698.82 2136.22 1480.69 672.027 701.994 1333.95 1286.98 773.879 244.359 943.161 955.555 564.948
internal_count=132027 77537 54490 45667 28597 13671 44880 25893 31870 12958 14926 10595 12935 12841 18649 5724 7234 34540 5648 13221 9976 3407 4178 7208 6945 5727 3047 10340 4331 2548
is_linear=0
shrinkage=0.1


Tree=17
num_leaves=31
num_cat=0
split_feature=1 4 4 3 6 11 1 1 6 4 4 1 6 11 1 6 11 9 3 6 11 4 9 1 9 3 0 9 5 3
split_gain=712.892 449.253 225.231 149.341 130.232 86.143 73.4262 57.5071 51.5263 50.2772 68.9529 43.3185 42.3813 41.5635 36.9049 34.3328 30.183 29.6457 92.4724 28.983 27.039 26.3653 26.1326 23.4955 23.2437 42.2174 18.821 22.7187 34.8367 21.6072
threshold=0.49369991577234401 1.0000000180025095e-35 1.7281360238553518 -0.48614836439208337 1.0000000180025095e-35 1.0000000180025095e-35 1.3956400845886636 3.0867779011192629 1.0000000180025095e-35 1.7281360238553518 1.0000000180025095e-35 3.0867779011192629 1.0000000180025095e-35 1.0000000180025095e-35 -0.40824025304397543 1.0000000180025095e-35 1.0000000180025095e-35 1.0000000180025095e-35 -0.21502533583447367 1.0000000180025095e-35 1.0000000180025095e-35 1.0000000180025095e-35 1.0000000180025095e-35 -0.40824025304397543 1.0000000180025095e-35 0.31789653140868585 -0.11598576032849035 1.0000000180025095e-35 1.0000000180025095e-35 -0.056449440651527218
decision_type=2 2 2 2 2 2 2 2 2 2 2 2 2 2 2 2 2 2 2 2 2 2 2 2 2 2 2 2 2 2
left_child=1 5 3 12 6 8 9 13 23 10 17 -8 16 21 -7 20 -3 18 -2 -4 -5 -6 -15 -1 25 -10 27 28 -16 -28
right_child=4 2 19 15 7 14 11 -9 24 -11 -12 -13 -14 22 26 -17 -18 -19 -20 -21 -22 -23 -24 -25 -26 -27 29 -29 -30 -31
leaf_value=-0.015006480073570878 0.054734110197962565 -0.066300828032015244 0.073082487471907848 -0.027345369643362413 0.0094205326170478665 -0.0025918898604389948 0.066270952968647753 -0.048793729200394986 -0.013809971534707545 0.099958920492607684 -0.00063774262733061341 -0.025079704598575576 -0.080150891062152951 0.016154348403903698 0.060933030098485379 -0.042604991221679545 -0.033828652768469553 0.056241929933308378 -0.0032363481916707496 0.0020068635852181294 0.011037719457646969 -0.023319138422962293 0.047853912980144082 0.0067694136983914412 -0.0059587046852428542 -0.055593994681821003 0.029633126830358743 0.054444386822980889 0.0053791187678615777 -0.00024103067314044021
leaf_weight=837.61150476336479 596.56019513309002 691.75767517834902 159.93502460420132 388.84532528370619 863.53608274459839 1233.6149444878101 976.00976601243019 159.86521168798208 466.10071691870689 97.370716080069542 663.8774346485734 54.82586957514286 1099.5896599553525 800.45034883916378 151.50377670675516 530.02017030864954 488.30303276330233 559.16237604618073 510.76160116493702 89.465621650218964 347.59273427724838 343.93962603807449 385.21653873473406 1213.0844926834106 367.80531261861324 502.50087770074606 379.51122868061066 271.81472338736057 442.73981031775475 668.70270526409149
leaf_count=5646 2798 12263 827 3604 3967 8102 5003 1211 3737 615 3827 255 22389 4783 828 6884 8160 2670 2107 408 2691 3569 1792 6411 2643 5818 1694 1194 2395 3736
internal_value=0 -0.0169061 -0.0442696 -0.0507299 0.0264061 -0.00101344 0.0390518 0.00927496 -0.0120818 0.0295573 0.0266157 0.0614124 -0.0660258 0.013154 0.010896 -0.023197 -0.052864 0.0374726 0.0279947 0.0475861 -0.00922887 9.49038e-05 0.0264534 -0.002125 -0.0273603 -0.0354871 0.019588 0.0304967 0.0195427 0.0105751
internal_weight=0 10330.5 3795.51 3546.11 6011.58 6534.99 3458.57 2553.01 3387.1 2427.73 2330.36 1030.84 2279.65 2393.14 3147.89 1266.46 1180.06 1666.48 1107.32 249.401 736.438 1207.48 1185.67 2050.7 1336.41 968.602 1914.27 866.058 594.244 1048.21
internal_count=132027 99430 57226 55991 32597 42204 17275 15322 24255 12017 11402 5258 42812 14111 17949 13179 20423 7575 4905 1235 6295 7536 6575 12057 12198 9555 9847 4417 3223 5430
is_linear=0
shrinkage=0.1


Tree=18
num_leaves=31
num_cat=0
split_feature=1 4 9 4 4 3 4 3 1 9 3 11 6 6 3 3 3 6 6 6 1 7 5 1 1 1 0 11 11 6
split_gain=596.152 318.595 163.748 123.766 121.671 193.473 143.749 88.3339 50.6694 48.81 91.4916 41.1325 40.0648 35.1887 34.8901 36.1244 28.0086 25.6358 24.3258 22.929 22.6629 22.1567 20.2862 20.2264 19.6161 19.2085 18.9074 18.1178 17.9483 17.8509
threshold=1.0000000180025095e-35 1.0000000180025095e-35 1.0000000180025095e-35 1.7281360238553518 1.0000000180025095e-35 -0.78266752912096449 1.7281360238553518 -0.48614836439208337 1.0574125212825438 1.0000000180025095e-35 0.31789653140868585 1.0000000180025095e-35 1.0000000180025095e-35 1.0000000180025095e-35 0.73940338152000817 1.4254800626270983 1.7566290350065377 1.0000000180025095e-35 1.0000000180025095e-35 1.0000000180025095e-35 -0.29549773194193552 -1.2494821211083773 1.0000000180025095e-35 2.635807816711103 3.7632330277315025 0.83192747907846376 -1.6401691595276737 1.0000000180025095e-35 1.0000000180025095e-35 1.0000000180025095e-35
decision_type=2 2 2 2 2 2 2 2 2 2 2 2 2 2 2 2 2 2 2 2 2 2 2 2 2 2 2 2 2 2
left_child=1 9 4 7 5 11 12 17 14 10 20 -2 -6 26 -4 19 18 28 -12 -16 -1 -13 -18 -15 -23 -7 -10 -9 -3 -5
right_child=2 3 8 29 6 25 -8 27 13 -11 16 21 -14 23 15 -17 22 -19 -20 -21 -22 24 -24 -25 -26 -27 -28 -29 -30 -31
leaf_value=-0.0042391734636989019 0.022403123731821184 -0.068621464597751855 -0.0058158906627094088 0.061361844625105855 -0.0091896081671697522 -0.015253598622365564 0.068764569877171541 -0.042434508916881955 -0.0093721658421033523 0.010205451990567169 -0.022392045694490735 0.012318340430081625 -0.039653648521988029 0.043273044089335938 0.04941597507353146 -0.0054871894622693478 0.11827100809195193 -0.0816679912936948 -0.048438632673078415 0.020957094272405625 0.02104308489627852 0.055454868197786306 -0.0007335420749217524 -0.013656738902318744 -0.11767276113691605 0.0047319077516561753 0.075816578692552788 -0.013878434937179522 -0.038953188942629398 -0.0065945688156379134
leaf_weight=1098.2306403890252 1057.6371121704578 504.55634890124202 283.31037729978561 99.76266248524189 1008.7053493447602 1065.4689518883824 192.57916313409805 498.95933496206999 27.421814203262329 1313.4013339877129 877.6156805306673 141.94533109664917 754.70472113415599 394.59491837024689 785.59882761538029 212.5874100252986 19.122440256178379 791.03291407227516 606.25972112268209 442.61001465469599 523.59134782850742 1056.3771398216486 57.08769354224205 74.132630079984665 6.5853657573461524 876.54626448452473 522.13554202020168 400.53542104363441 342.20921957492828 63.105767488479614
leaf_count=7093 4868 9915 1483 509 8216 6170 1201 6067 149 7257 6677 646 10393 1829 3688 1101 172 18092 7257 2499 2889 4846 525 383 29 4142 2847 4273 6533 278
internal_value=0 -0.0223215 0.016384 -0.0494719 0.00733554 0.0169209 -0.0132689 -0.0548961 0.0367107 -0.00601338 -0.0127081 0.0367945 -0.0222276 0.0543978 0.0262645 0.0325726 -0.0299972 -0.0687237 -0.0330338 0.0391602 0.00392299 0.0494269 0.0291268 0.0342692 0.0543823 -0.00623296 0.0715658 -0.0297188 -0.0566314 0.0350311
internal_weight=0 7195.47 8902.94 2700.16 6160.55 4204.56 1955.99 2537.29 2742.39 4495.31 3181.91 2262.54 1763.41 1018.28 1724.11 1440.8 1560.09 1637.8 1483.88 1228.21 1621.82 1204.91 76.2101 468.728 1062.96 1942.02 549.557 899.495 846.766 162.868
internal_count=132027 77537 54490 45667 40511 20701 19810 44880 13979 31870 24613 10389 18609 5208 8771 7288 14631 34540 13934 6187 9982 5521 697 2212 4875 10312 2996 10340 16448 787
is_linear=0
shrinkage=0.1


Tree=19
num_leaves=31
num_cat=0
split_feature=1 4 4 3 1 11 6 11 1 6 6 6 4 4 6 0 9 6 6 11 9 3 3 1 9 3 0 1 1 2
split_gain=510.634 354.589 192.22 128.777 96.9127 78.5816 68.1349 51.9856 46.0952 43.3533 32.8352 32.3697 29.4255 30.8586 25.0642 24.7084 24.5515 23.56 21.979 21.1096 20.6288 29.395 22.5716 19.8823 18.1121 34.6821 17.5004 14.8666 21.946 16.9198
threshold=0.7191849579764239 1.0000000180025095e-35 1.7281360238553518 -0.48614836439208337 3.0867779011192629 1.0000000180025095e-35 1.0000000180025095e-35 1.0000000180025095e-35 1.3956400845886636 1.0000000180025095e-35 1.0000000180025095e-35 1.0000000180025095e-35 1.7281360238553518 1.0000000180025095e-35 1.0000000180025095e-35 -1.2153967368000325 1.0000000180025095e-35 1.0000000180025095e-35 1.0000000180025095e-35 1.0000000180025095e-35 1.0000000180025095e-35 0.20404714221110784 1.5334255527164411 -0.21432311674846694 1.0000000180025095e-35 0.349119968083412 1.2957578799133767 2.0720952112009035 1.2828975634866235 1.0000000180025095e-35
decision_type=2 2 2 2 2 2 2 2 2 2 2 2 2 2 2 2 2 2 2 2 2 2 2 2 2 2 2 2 2 2
left_child=1 5 3 7 6 9 8 18 12 15 19 23 13 -2 -9 -1 27 -4 -3 -5 21 -17 -23 -7 25 -11 -10 28 -8 -30
right_child=4 2 17 10 -6 11 16 14 26 24 -12 -13 -14 -15 -16 20 -18 -19 -20 -21 -22 22 -24 -25 -26 -27 -28 -29 29 -31
leaf_value=0.026774832566951873 0.036608331436846324 -0.058033434073352042 0.067223609026670919 -0.021425406779201385 -0.039482805905684204 0.0084533201027938223 0.0015403035666606512 -0.025380272281866879 0.062727930770678272 -0.011783381827416643 -0.037361551336782366 -0.00087458387960500338 0.095650867578562102 0.0043187657520485463 -0.057924695824184504 0.0028863744291809028 0.032820228026166312 0.0060509333637274454 -0.084003487153557058 0.010533727755597593 0.011169658630609824 -0.032302833001993235 0.021579463911056963 0.027496222520327202 -0.0054518029878749454 -0.048348549705298192 0.01105576619131488 -0.0096023423438448066 0.049278340739993799 0.0089621315884525765
leaf_weight=283.0164700448513 1082.0217277109623 691.78042490035295 171.05475789308548 427.05755540728569 208.35447413474321 1013.6208441406488 549.42636306583881 540.21127056702971 861.99295635521412 520.08416774123907 557.12689830362797 1356.2894247248769 66.732997328042984 407.41622230410576 421.1264774389565 735.43448425829411 603.91222734004259 99.629901617765427 616.12957967445254 400.4988420009613 580.14742656052113 625.01512431353331 88.788741111755371 1194.2660553753376 422.11462412774563 517.52285142242908 70.938461199402809 338.36028245091438 240.42458777874708 183.58075974881649
leaf_count=1597 5237 12925 978 3885 1466 5356 3514 8682 4635 3997 7303 9137 464 2131 9397 3716 2819 476 14104 2922 2697 4580 624 5318 2865 6127 368 2195 1413 1099
internal_value=0 -0.0123415 -0.0366029 -0.0426264 0.02716 0.000637341 0.0303123 -0.0572911 0.0412233 -0.0094229 -0.0185936 0.0112845 0.0306866 0.0277759 -0.0396368 -0.000905223 0.0161355 0.044708 -0.0702674 -0.00595867 -0.00476546 -0.0111445 -0.0256005 0.0187538 -0.0229161 -0.0300208 0.0587989 0.00845426 0.0147307 0.0318227
internal_weight=0 11260.9 3924.62 3653.93 4613.16 7336.3 4404.81 2269.25 2489.1 3772.12 1384.68 3564.18 1556.17 1489.44 961.338 2312.4 1915.7 270.685 1307.91 827.556 2029.39 1449.24 713.804 2207.89 1459.72 1037.61 932.931 1311.79 973.432 424.005
internal_count=132027 106686 60672 59218 25341 46014 23875 45108 12835 26203 14110 19811 7832 7368 18079 13214 11040 1454 27029 6807 11617 8920 5204 10674 12989 10124 5003 8221 6026 2512
is_linear=0
shrinkage=0.1


Tree=20
num_leaves=31
num_cat=0
split_feature=1 4 3 11 4 6 11 9 3 9 4 3 4 4 4 4 5 3 7 1 4 1 6 1 6 4 3 3 6 11
split_gain=430.552 274.746 144.735 105.442 58.9619 49.0178 48.5949 48.5574 92.328 47.6278 40.5332 34.8498 70.2318 28.0988 31.9429 27.5962 27.1842 26.436 24.9608 23.1676 22.6208 22.003 21.3207 20.6284 19.8181 19.6015 18.5922 17.9488 17.6488 16.9647
threshold=0.38095739467030404 1.0000000180025095e-35 -0.78266752912096449 1.0000000180025095e-35 1.7281360238553518 1.0000000180025095e-35 1.0000000180025095e-35 1.0000000180025095e-35 0.31789653140868585 1.0000000180025095e-35 1.7281360238553518 0.20404714221110784 1.0000000180025095e-35 1.7281360238553518 1.0000000180025095e-35 1.0000000180025095e-35 1.0000000180025095e-35 1.7354726276327865 -1.2971533673266877 -0.40824025304397543 1.7281360238553518 -0.67093032721172829 1.0000000180025095e-35 -0.29549773194193552 1.0000000180025095e-35 1.7281360238553518 0.54278534208724583 1.0733878544843043 1.0000000180025095e-35 1.0000000180025095e-35
decision_type=2 2 2 2 2 2 2 2 2 2 2 2 2 2 2 2 2 2 2 2 2 2 2 2 2 2 2 2 2 2
left_child=1 7 6 5 19 13 22 8 23 11 -8 12 28 14 -2 -7 17 -10 -11 -4 -14 -9 -3 -1 -18 -13 -23 -28 -5 -21
right_child=3 2 4 9 -6 15 10 21 16 18 -12 25 20 -15 -16 -17 24 -19 -20 29 -22 26 -24 -25 -26 -27 27 -29 -30 -31
leaf_value=-0.0039944042786507934 0.023407888649914915 -0.056163928708413663 -0.033782287873166367 0.061505143199515167 0.055679919031744567 0.00092912468070598683 -0.043004872323361733 -0.0054851171177487563 -0.0094858170387767393 0.0017243901836550776 0.047328887911471766 0.0038224354611777786 -0.0030972535917937172 0.082335818979740655 -0.0071617233696053958 -0.029993488245640493 -0.021223879833989226 0.086897516525123203 0.053610344632307641 -0.021027366434150818 0.063536027927800456 -0.026456356921679428 -0.083915045096363022 0.015127507899828949 -0.044895050798579549 0.096200591526978824 0.035041095161886977 0.010361150403963799 0.033002687462832019 0.01315670884348763
leaf_weight=1095.5305599719286 1185.0463387817144 587.52135422453284 541.16418471932411 522.82668544352055 117.10662111639977 986.16956800222397 768.76199554279447 530.40337872505188 480.10503639280796 102.44020492583513 53.103009298443794 785.3546039685607 481.53696762770414 63.561322212219238 480.3790252879262 408.00180988386273 899.48145322501659 30.250191241502762 976.82124965637922 310.67604500800371 56.97605337202549 84.800860866904259 523.55383149906993 1163.1317088901997 582.89332456886768 23.661531448364258 558.41741448640823 623.9245161563158 371.69078399240971 272.5289456769824
leaf_count=7093 5625 12002 6481 2790 606 4686 16485 3120 4322 523 279 3701 4066 459 3111 4636 6552 240 4986 3557 396 425 13084 5805 6894 164 2762 3099 1517 2561
internal_value=0 -0.0146664 -0.0384912 0.0190219 -0.0118475 0.00583107 -0.0556038 -0.00216343 -0.00798932 0.0314257 -0.0371682 0.0231173 0.0324849 0.0170808 0.0145903 -0.00812032 -0.0236786 -0.00377291 0.0486855 -0.0188807 0.00395272 0.0116154 -0.0692406 0.00585271 -0.0305318 0.00652425 0.0187734 0.0220174 0.0496618 -0.00505331
internal_weight=0 9223.35 3174.42 6444.47 1241.48 3123.16 1932.94 6048.94 4251.39 3321.31 821.865 2242.05 1433.03 1728.99 1665.43 1394.17 1992.73 510.355 1079.26 1124.37 538.513 1797.55 1111.08 2258.66 1482.37 809.016 1267.14 1182.34 894.517 583.205
internal_count=132027 95367 55055 36660 13205 18517 41850 40312 30906 18143 16764 12634 8769 9195 8736 9322 18008 4562 5509 12599 4462 9406 25086 12898 13446 3865 6286 5861 4307 6118
is_linear=0
shrinkage=0.1


Tree=21
num_leaves=31
num_cat=0
split_feature=1 4 11 3 4 4 9 11 4 6 11 1 3 9 3 6 7 4 3 3 7 4 3 3 4 7 6 0 6 1
split_gain=362.323 217.27 112.48 90.8614 51.5894 68.874 50.1961 39.1478 35.7152 32.2103 30.6326 29.5295 27.2874 24.165 51.4229 22.5588 21.7781 20.4774 19.9216 25.9744 18.3671 18.0263 16.7835 16.2544 34.2617 15.9497 15.6097 14.8254 14.3303 14.2538
threshold=1.0000000180025095e-35 1.0000000180025095e-35 1.0000000180025095e-35 -0.78266752912096449 1.0000000180025095e-35 1.7281360238553518 1.0000000180025095e-35 1.0000000180025095e-35 1.7281360238553518 1.0000000180025095e-35 1.0000000180025095e-35 1.2828975634866235 0.52825316296492064 1.0000000180025095e-35 -0.21502533583447367 1.0000000180025095e-35 0.50314134364652918 1.7281360238553518 1.2999142685639253 0.72083621379611806 -0.77035714606218997 1.7281360238553518 0.73940338152000817 0.31789653140868585 1.0000000180025095e-35 -1.2633192120548331 1.0000000180025095e-35 -1.4277829481638531 1.0000000180025095e-35 0.7191849579764239
decision_type=2 2 2 2 2 2 2 2 2 2 2 2 2 2 2 2 2 2 2 2 2 2 2 2 2 2 2 2 2 2
left_child=1 7 4 10 13 12 9 15 28 11 -3 21 26 14 29 20 -11 -12 19 -8 -1 23 -15 24 -4 -13 -6 -22 -5 -2
right_child=2 3 6 8 5 -7 18 -9 -10 16 17 25 -14 22 -16 -17 -18 -19 -20 -21 27 -23 -24 -25 -26 -27 -28 -29 -30 -31
leaf_value=0.014038609410456527 0.0058717302283229408 -0.070363625720885892 0.039727151498092896 -0.012990919362804621 -0.021976701824432503 0.055818285524454586 0.013792415723737187 0.0048940401846830663 0.04439984712079835 -0.0059115377284926765 -0.045649392982268465 -0.0048190469199015009 -0.0038111840604941279 -0.0095719166429997799 -0.014124651905038421 -0.026235504855304827 0.021889703167853315 0.03046371366814242 0.017583989671405124 0.053553506618500113 0.027854049482961298 0.081392623271514794 0.027653687378995498 0.0019632726940029504 -0.0013950990486918139 0.05720032897068468 -0.051752761187531963 -0.016002486580593105 -0.039319388509063538 0.029150075963666807
leaf_weight=345.44985867291689 516.75256632268429 839.62520752102137 553.68325118720531 490.28356770426035 397.36510035023093 122.59000394493341 202.06460406258702 2124.1452260687947 83.644257053732872 775.9545405767858 577.60843129083514 47.204855963587761 454.11631732434034 143.33897079527378 978.40298851579428 904.39837552607059 442.42288557812572 37.651467561721802 316.15048476308584 879.01890965551138 83.716841012239456 44.171186804771423 781.18440130352974 492.73389063775539 319.53222707659006 341.10824516415596 316.12259241938591 972.15320713818073 357.45089347660542 535.76059129834175
leaf_count=2208 2383 20959 2603 4872 4168 830 1045 13221 429 5480 13744 251 3184 672 5711 9588 3167 192 1630 4531 533 323 3659 2229 2756 1878 5489 6320 5471 2501
internal_value=0 -0.0180039 0.0128177 -0.0423297 0.00119693 -0.0154868 0.023995 -0.00490017 -0.0179414 0.0167377 -0.0579424 0.0252426 -0.0229733 0.00848019 0.00237927 -0.0139231 0.00418378 -0.0409916 0.0396646 0.0461218 -0.00597678 0.0185183 0.0218822 0.0164851 0.0246795 0.049661 -0.0351695 -0.0125252 -0.0240924 0.0177211
internal_weight=0 6816.13 8659.68 2386.26 4245.63 1290.19 4414.05 4429.86 931.379 3016.81 1454.89 1798.43 1167.6 2955.44 2030.92 2305.72 1218.38 615.26 1397.23 1081.08 1401.32 1410.12 924.523 1365.95 873.215 388.313 713.488 1055.87 847.734 1052.51
internal_count=132027 77537 54490 45667 28597 13671 25893 31870 10772 18687 34895 10040 12841 14926 10595 18649 8647 13936 7206 5576 9061 7911 4331 7588 5359 2129 9657 6853 10343 4884
is_linear=0
shrinkage=0.1


Tree=22
num_leaves=31
num_cat=0
split_feature=1 4 4 3 1 6 6 6 1 0 11 1 6 4 6 7 4 0 0 11 0 11 1 0 2 1 1 5 7 9
split_gain=314.483 219.488 122.085 94.8984 75.9097 51.8415 48.2111 47.116 37.9504 36.6218 26.9061 26.476 24.8466 23.5615 20.2414 20.2339 18.3941 17.7267 17.0949 18.3286 15.2465 15.1235 14.9975 14.5358 14.5154 14.3785 14.2297 14.059 20.1445 16.8657
threshold=0.7191849579764239 1.0000000180025095e-35 1.7281360238553518 -0.48614836439208337 3.0867779011192629 1.0000000180025095e-35 1.0000000180025095e-35 1.0000000180025095e-35 1.3956400845886636 0.12138706413695628 1.0000000180025095e-35 -0.40824025304397543 1.0000000180025095e-35 1.7281360238553518 1.0000000180025095e-35 -0.37724315758115551 1.0000000180025095e-35 -0.2534121323874331 0.92095868338898712 1.0000000180025095e-35 1.2957578799133767 1.0000000180025095e-35 -0.40824025304397543 -1.3278364957573492 0.52632763990810882 0.26821487356826407 4.1014605910376227 1.0000000180025095e-35 0.39873367848409585 1.0000000180025095e-35
decision_type=2 2 2 2 2 2 2 2 2 2 2 2 2 2 2 2 2 2 2 2 2 2 2 2 2 2 2 2 2 2
left_child=1 5 3 6 7 9 10 8 13 25 -3 -7 22 16 -4 -9 -2 -13 19 -11 -10 -8 -5 -12 -17 27 -6 28 -1 -29
right_child=4 2 14 12 26 11 21 15 20 18 23 17 -14 -15 -16 24 -18 -19 -20 -21 -22 -23 -24 -25 -26 -27 -28 29 -30 -31
leaf_value=0.009661792089945713 0.028637465250288298 -0.049673691889687593 0.058497786738304594 -0.021574787833044395 -0.028811119973822748 -0.023706413867434935 -0.078203366623395124 -0.00048728738546535851 0.05405388492655569 -0.021017056808253033 0.036032800137929664 0.0090692465295701599 -0.031822052725798473 0.08707711813215481 0.00051781910920473595 0.028672367637292612 0.0035388682585089752 -0.011459590398314259 0.0092041978454882132 0.0023476436805531646 0.0050071102940231387 -0.051653188392072925 0.0065861535685037666 -0.02360688537614002 0.0051978551613307529 0.028806363560603038 -0.11301110889641562 -0.0010590066483496799 0.061362312252508003 0.021028980212017535
leaf_weight=192.57697630673647 1040.6094308793545 598.84602915868163 157.8223195001483 300.28246922045946 180.77216180413961 1002.7384325712919 500.50783796235919 726.32167400419712 811.73871405422688 696.40832879394293 44.896608728915453 695.42235889285803 521.21295700222254 57.118118651211262 97.355158254504204 779.224978774786 405.89123371988535 1064.4926469773054 736.09850433468819 648.29354658722878 68.747499540448189 375.50490824878216 510.83182277530432 455.28929897025228 397.92817690968513 578.50223487615585 22.577933140099049 981.73654036223888 123.82178399711847 533.58093278110027
leaf_count=1153 5237 12925 978 3035 1304 10017 14104 4229 4635 4054 786 4697 7303 464 476 4479 2131 7412 3915 3159 368 9397 3772 7896 2332 2561 162 5899 742 2405
internal_value=0 -0.00994157 -0.0302682 -0.0354102 0.0215388 4.16138e-05 -0.0493227 0.0243702 0.0337369 0.00667218 -0.035374 -0.0107372 -0.0147863 0.0240822 0.0363773 0.0126383 0.0215947 -0.00334771 -0.00304657 -0.00975271 0.0502244 -0.0668226 -0.0038393 -0.0182536 0.020737 0.0150626 -0.0381598 0.010722 0.0298946 0.00671872
internal_weight=0 10816.2 3562.55 3307.37 4490.93 7253.67 1975.04 4287.58 2384.1 4491.02 1099.03 2762.65 1332.33 1503.62 255.177 1903.47 1446.5 1759.92 2080.8 1344.7 880.486 876.013 811.114 500.186 1177.15 2410.22 203.35 1831.72 316.399 1515.32
internal_count=132027 106686 60672 59218 25341 46014 45108 23875 12835 23888 21607 22126 14110 7832 1454 11040 7368 12109 11128 7213 5003 23501 6807 8682 6811 12760 1466 10199 1895 8304
is_linear=0
shrinkage=0.1


Tree=23
num_leaves=31
num_cat=0
split_feature=1 4 11 3 9 6 4 4 3 4 4 9 11 11 1 7 1 1 0 1 1 0 9 3 7 4 1 4 1 6
split_gain=260.026 145.007 94.2816 67.5579 49.1783 45.7673 37.5377 30.0002 29.4727 68.3523 29.5992 28.6196 28.1344 28.0422 19.3108 17.7845 19.1902 17.5361 19.7198 16.6576 16.4277 16.2836 15.558 21.1311 26.7967 15.2878 14.8063 14.7373 14.6974 13.0127
threshold=-0.07001268973785571 1.0000000180025095e-35 1.0000000180025095e-35 -0.78266752912096449 1.0000000180025095e-35 1.0000000180025095e-35 1.0000000180025095e-35 1.7281360238553518 0.20404714221110784 1.0000000180025095e-35 1.7281360238553518 1.0000000180025095e-35 1.0000000180025095e-35 1.0000000180025095e-35 1.0574125212825438 -1.3454246090146567 1.3956400845886636 1.5083826056907035 -0.21593221273499416 0.7191849579764239 0.7191849579764239 -1.2153967368000325 1.0000000180025095e-35 -0.23897946151138758 -1.3670163902894956 1.7281360238553518 2.8612928589151827 1.7281360238553518 2.8612928589151827 1.0000000180025095e-35
decision_type=2 2 2 2 2 2 2 2 2 2 2 2 2 2 2 2 2 2 2 2 2 2 2 2 2 2 2 2 2 2
left_child=1 12 5 13 8 11 -7 -5 9 20 -11 17 21 -3 -13 -6 27 18 -2 -8 -4 -1 23 -23 -25 -10 -19 -17 -21 -15
right_child=2 3 4 7 15 6 19 -9 25 10 -12 14 -14 29 -16 16 -18 26 -20 28 -22 22 -24 24 -26 -27 -28 -29 -30 -31
leaf_value=0.01018380117120002 0.010551128800163956 -0.06740235153811934 0.022927000882682243 -0.022651644149551675 0.00030390117301104335 -0.0030660237175725957 -0.049968175596341001 0.044464913744234426 -0.0014107158561866334 -0.0099653588370501329 0.058734484870612474 0.0146618889314872 0.0030172634854070939 -0.02218112327726246 0.049968237187415297 0.029495845638680553 0.060099906671623862 0.034379097429791498 -0.012181986204597785 -0.0064116578913880704 0.045621265443628711 -0.0097104445666531605 -0.0025766042829245815 0.030791437959568031 -0.041683651655850952 0.073738172727818505 -0.045962919630893433 0.094538725328134232 -0.072537966022672262 -0.05390733614776743
leaf_weight=245.0979630574584 658.9927736222744 675.48648069426417 637.55683849751949 741.86963168531656 134.83088124915957 1368.1403762176633 297.39906742051244 73.166775569319725 1160.7673208862543 685.81280810758471 69.026842176914215 580.40861856564879 1880.8136256858706 285.66305836290121 211.31754444539547 987.743507578969 312.52669470012188 221.44004430621862 906.4337412007153 235.99327197670937 638.30695199966431 602.66006837040186 510.43398784101009 55.699969813227654 606.61564089357853 27.717120483517647 25.589058503508568 36.108744733035564 39.194017466157675 236.15518227592111
leaf_count=1979 4611 18986 2784 9422 707 7786 5633 392 6246 8044 507 2881 11882 6066 1242 5035 1769 1139 6482 2562 3327 4295 3198 612 6719 207 121 258 509 6626
internal_value=0 -0.0170308 0.00982544 -0.0388341 0.0197714 -0.000438872 -0.0120632 -0.0166265 0.0128491 0.0201691 -0.00368305 0.00822399 -0.00578451 -0.0539513 0.0240854 0.0349181 0.0384104 0.00129532 -0.0026121 -0.0335611 0.0342808 -0.0139777 -0.0173133 -0.0232597 -0.0355886 0.000341861 0.0260567 0.0317897 -0.0158298 -0.0365392
internal_weight=0 5913.66 9235.31 2012.34 4690.4 4544.91 1940.73 815.036 3219.19 2030.7 754.84 2604.18 3901.32 1197.3 791.726 1471.21 1336.38 1812.46 1565.43 572.586 1275.86 2020.51 1775.41 1264.98 662.316 1188.48 247.029 1023.85 275.187 521.818
internal_count=132027 70177 61850 41492 28884 32966 16490 9814 21115 14662 8551 16476 28685 31678 4123 7769 7062 12353 11093 8704 6111 16803 14824 11626 7331 6453 1260 5293 3071 12692
is_linear=0
shrinkage=0.1


Tree=24
num_leaves=31
num_cat=0
split_feature=1 4 3 1 6 4 6 6 1 0 11 11 9 3 4 11 4 7 7 3 3 0 9 3 6 3 3 0 0 2
split_gain=219.804 158.869 94.5788 58.6297 49.5049 43.7967 41.4695 36.8643 28.9921 27.9064 26.6933 21.3829 20.9706 46.0992 20.1134 17.8761 16.7769 16.1548 15.904 14.4995 21.1908 13.9353 15.951 18.5445 13.7306 14.5339 15.0737 13.3273 13.1141 13.3383
threshold=0.7191849579764239 1.0000000180025095e-35 -0.78266752912096449 3.0867779011192629 1.0000000180025095e-35 1.7281360238553518 1.0000000180025095e-35 1.0000000180025095e-35 1.3956400845886636 0.12138706413695628 1.0000000180025095e-35 1.0000000180025095e-35 1.0000000180025095e-35 0.092395250058464343 1.7281360238553518 1.0000000180025095e-35 1.7281360238553518 0.18212944625425748 -0.37724315758115551 0.73940338152000817 0.88705120908759827 0.92095868338898712 1.0000000180025095e-35 0.24918917375345825 1.0000000180025095e-35 1.5977865957689501 0.50911607934980252 -1.2153967368000325 1.2957578799133767 1.2384575573771317
decision_type=2 2 2 2 2 2 2 2 2 2 2 2 2 2 2 2 2 2 2 2 2 2 2 2 2 2 2 2 2 2
left_child=1 6 4 7 10 11 9 8 14 -1 -3 -4 13 27 17 -6 -12 -2 -9 -14 -21 22 23 -11 -7 26 -26 -8 -10 -30
right_child=3 2 5 -5 15 24 12 18 28 21 16 -13 19 -15 -16 -17 -18 -19 -20 20 -22 -23 -24 -25 25 -27 -28 -29 29 -31
leaf_value=0.013181459487040727 0.0079014450251469106 -0.041538468228266734 -0.024594878331384927 -0.034992767530787824 -0.072361304959083453 0.074225761013547165 0.030703185978187782 -0.001383852640876166 0.04749128731164258 -0.0027389657348705666 -0.015281642040836003 0.001076495491769872 -0.026503605637967848 -0.031541617085313188 0.081843808858890393 -0.042854036046903007 0.056033494162280539 0.029194878550468324 0.017450511031606056 0.046832516665763921 0.0011573277380017102 0.0084005825651740328 0.0082108185464100699 -0.030882669846689609 -0.14120090417421954 -0.17186032835622403 0.042862578370564071 -0.0047583539183591959 0.020684337398162222 -0.10166067609158523
leaf_weight=2409.7961649522185 723.98999012261629 586.77879374101758 684.48818897455931 198.58080170303583 460.39288694784045 79.60955572873354 121.27550473064184 723.86633065342903 778.2498255521059 504.28573147952557 485.52386746183038 616.88787151500583 136.76582363247871 926.58852186799049 51.752087719738483 370.5669075883925 35.391961127519608 701.5443164780736 1177.859705246985 122.80373810976744 587.59403109550476 735.06014610081911 391.60490611195564 437.03087922185659 4.9671689867973319 4.1311716288328162 42.669064342975616 840.33722560107708 57.114930234849453 10.558299914002417
leaf_count=12760 3735 13129 8196 1466 14199 534 807 4229 4635 2406 8682 5918 856 10522 464 9518 238 3633 6811 718 3559 3915 1746 3061 25 20 213 5664 313 55
internal_value=0 -0.00843372 -0.0263538 0.0181099 -0.0407526 -0.00687082 -5.79025e-05 0.0206058 0.0290571 0.00586833 -0.0269121 -0.0124259 -0.00975911 -0.015624 0.0206038 -0.0592025 -0.0104364 0.0183805 0.0102815 0.00331277 0.00905302 -0.00265359 -0.00874958 -0.0158054 0.0481563 0.00806594 0.0236697 -0.000286059 0.0438197 0.00159621
internal_weight=0 10584.6 3371.41 4423.52 1938.65 1432.75 7213.14 4224.94 2323.21 4477.78 1107.69 1301.38 2735.36 1888.2 1477.29 830.96 520.916 1425.53 1901.73 847.164 710.398 2067.98 1332.92 941.317 131.377 51.7674 47.6362 961.613 845.923 67.6732
internal_count=132027 106686 60672 25341 45766 14906 46014 23875 12835 23888 22049 14114 22126 16993 7832 23717 8920 7368 11040 5133 4277 11128 7213 5467 792 258 238 6471 5003 368
is_linear=0
shrinkage=0.1


Tree=25
num_leaves=31
num_cat=0
split_feature=1 11 4 4 4 4 4 1 3 3 6 0 0 1 6 6 1 3 0 3 3 3 9 4 6 1 7 0 0 7
split_gain=198.678 97.6574 78.5578 59.1778 47.2652 43.0473 47.517 38.5596 38.1299 30.3735 21.7482 19.8493 19.685 17.3067 17.1565 17.1529 17.1241 16.9682 16.5569 16.3964 15.9511 28.8942 22.8201 15.2065 15.0426 14.4629 14.0912 13.419 12.5326 11.9596
threshold=-0.40824025304397543 1.0000000180025095e-35 1.0000000180025095e-35 1.0000000180025095e-35 1.7281360238553518 1.7281360238553518 1.0000000180025095e-35 0.83192747907846376 -0.78266752912096449 0.48433742497386983 1.0000000180025095e-35 -1.7526089184849905 -0.21593221273499416 0.83192747907846376 1.0000000180025095e-35 1.0000000180025095e-35 3.0867779011192629 1.2999142685639253 -2.3772742460256393 0.74714246547714958 0.31789653140868585 0.70277381735565192 1.0000000180025095e-35 1.7281360238553518 1.0000000180025095e-35 2.7485503378131431 0.51404668149335675 -1.465262867816292 -2.3772742460256393 -0.83807130409661945
decision_type=2 2 2 2 2 2 2 2 2 2 2 2 2 2 2 2 2 2 2 2 2 2 2 2 2 2 2 2 2 2
left_child=2 3 15 12 9 6 7 26 24 14 11 -9 20 -14 18 27 -15 -11 -5 -8 25 -22 -23 -10 -4 -2 -3 -1 -12 -29
right_child=1 5 8 4 -6 -7 19 10 23 17 28 -13 13 16 -16 -17 -18 -19 -20 -21 21 22 -24 -25 -26 -27 -28 29 -30 -31
leaf_value=0.02769680394584639 0.026930258447597184 0.0065250545863642234 -0.041946134229294128 0.14985798263852165 0.035524185493928682 0.065493445551916399 -0.009144281407664696 -0.029189518491486155 -0.024743390030947009 0.0034864613561772953 -0.12808798147695596 0.047974781276253126 -0.0088455470692750116 0.012866345954579965 -0.051958439446435738 -0.02036702419805736 -0.05994319326856528 -0.034041893142713851 -0.025893231346163004 0.013167821189384527 -0.036429909164452531 -0.0058605316879831258 0.027338162169313302 0.036481714902348861 -0.070166467998421661 -0.073803761823053662 0.022064428758960374 0.011075826797137787 0.021001965735688272 -0.011018694347010345
leaf_weight=127.11794997751713 606.87479346245527 1584.5008582919836 425.15011083707213 5.4174549430608741 144.39620488882065 167.54523038119078 951.30754415690899 34.945138454437256 490.74854683876038 432.91021407023072 5.6861788481473914 723.93459868431091 1470.4092468172312 735.2680481672287 385.45386152155697 970.933917529881 33.786393746733665 166.94118298590183 507.44474938884377 503.77155085653067 149.23108515888453 398.99115093052387 430.39961484074593 44.222296848893166 339.89498508535326 14.595646664500235 923.76611867547035 313.31443970650434 669.05858689546585 1123.4542958885431
leaf_count=760 3092 7963 10603 67 992 1266 12850 204 6481 3796 25 4442 9125 3603 9543 10017 205 1529 7793 3485 940 2787 2123 248 11504 68 4636 1921 2923 7036
internal_value=0 0.00624168 -0.0201769 -0.00323109 -0.019116 0.0155742 0.0140245 0.0197253 -0.0401627 -0.0243823 0.0328076 0.0444215 0.00356448 -0.00248793 -0.0360175 -0.00992696 0.00966765 -0.00695784 -0.0240367 -0.00141948 0.0120353 0.00407876 0.0113674 -0.0196823 -0.0544839 0.0245645 0.012248 -0.00344528 0.0197456 -0.00620057
internal_weight=0 11046.6 3834.84 5482.12 1642.56 5564.52 5396.97 3941.89 1300.02 1498.17 1433.62 758.88 3839.56 2239.46 898.316 2534.82 769.054 599.851 512.862 1455.08 1600.09 978.622 829.391 534.971 765.045 621.47 2508.27 1563.89 674.745 1436.77
internal_count=132027 83457 48570 45663 23720 37794 36528 20193 28836 22728 7594 4646 21943 12933 17403 19734 3808 5325 7860 16335 9010 5850 4910 6729 22107 3160 12599 9717 2948 8957
is_linear=0
shrinkage=0.1


Tree=26
num_leaves=31
num_cat=0
split_feature=1 11 4 4 9 4 3 3 4 3 4 3 3 1 0 11 9 3 4 3 3 3 7 1 6 3 2 7 1 1
split_gain=163.737 79.6396 68.2438 49.0537 40.3464 39.1867 34.1228 27.3353 52.6687 26.1777 19.847 18.0242 23.0705 16.9772 17.4599 16.9729 16.7647 52.0972 15.8293 15.6995 15.5894 15.1759 14.6443 14.6434 14.3177 14.1001 13.7362 12.9936 15.0176 12.7234
threshold=-0.40824025304397543 1.0000000180025095e-35 1.0000000180025095e-35 1.0000000180025095e-35 1.0000000180025095e-35 1.7281360238553518 -0.78266752912096449 0.20404714221110784 1.0000000180025095e-35 0.48433742497386983 1.7281360238553518 0.57432249101249588 1.3101289271592644 0.49369991577234401 -1.8025821446882426 1.0000000180025095e-35 1.0000000180025095e-35 -0.21502533583447367 1.7281360238553518 0.73940338152000817 0.73940338152000817 1.5251644369387651 0.36908576708831076 0.38095739467030404 1.0000000180025095e-35 1.2999142685639253 -1.6100621124989594 -1.2005058623668019 3.7632330277315025 0.94467000018050373
decision_type=2 2 2 2 2 2 2 2 2 2 2 2 2 2 2 2 2 2 2 2 2 2 2 2 2 2 2 2 2 2
left_child=2 3 15 16 7 9 24 8 23 13 -10 -6 29 14 -5 -1 17 22 26 -19 -18 -22 -2 -3 -4 -11 -9 -25 -29 -13
right_child=1 4 6 5 11 -7 -8 18 10 25 -12 12 -14 -15 -16 -17 20 19 -20 -21 21 -23 -24 27 -26 -27 -28 28 -30 -31
leaf_value=-0.016891811084919685 0.003758711741434875 0.015212007784686538 -0.039181815231525967 0.058150902523180163 -0.009303694272499342 0.032704538681264037 -0.01809650912576817 0.048331588869553826 -0.0089790877063240428 0.0031308783221124696 0.045221300172436772 0.02895471133852158 0.0077391204999419649 -0.018844693582140984 -0.050432253666726927 -0.00045488430307411985 -0.013684072229140781 -0.03577009553182383 0.069547795224391418 -0.0096278134459254292 0.022026626485950031 -0.019601761922045359 0.024773218219653788 0.0030062866300801499 -0.067413391343188647 -0.031333804730012585 -0.0061070443458999943 0.041451422456207976 -0.10574268479237453 0.050435137918763688
leaf_weight=1309.4984720610082 820.26540984213352 660.29437487572432 410.42342477291822 15.32308119162917 128.96513837203383 141.32767551392317 524.26182646304369 48.009300827980042 811.31566348671913 433.81882018968463 73.697127908468246 830.12076817452908 373.19978230446577 415.22095883637667 441.15151056088507 1207.5334046781063 183.76631166785955 301.20728071406484 29.706345647573471 967.91534292697906 905.32583391666412 96.952326595783234 556.65273110568523 109.16082507371902 319.47196933813393 163.42388352379203 1341.1613041236997 714.84988911449909 6.9992291629314414 412.91525080800056
leaf_count=11632 4139 2950 10603 406 713 992 6729 280 11875 3796 572 4422 2040 4553 12444 8102 926 2122 238 6955 4487 482 2832 550 11504 1529 8004 3725 32 2393
internal_value=0 0.00564898 -0.0185019 -0.00294286 0.0140888 -0.0175886 -0.0375592 0.00830199 0.0148599 -0.0224273 -0.00446569 0.026673 0.0295437 -0.0334772 -0.0467873 -0.00900628 0.00321138 -0.00121687 -0.0026811 -0.0158323 0.0130907 0.0179998 0.0122543 0.0263286 -0.0515387 -0.00629971 -0.00422566 0.0351615 0.0400242 0.0360901
internal_weight=0 10982.7 3771.19 5442.35 5540.39 1610.27 1254.16 3795.19 2376.32 1468.94 885.013 1745.2 1616.24 871.696 456.475 2517.03 3832.09 2646.04 1418.88 1269.12 1186.04 1002.28 1376.92 1491.3 729.895 597.243 1389.17 831.01 721.849 1243.04
internal_count=132027 83457 48570 45663 37794 23720 28836 28226 19704 22728 12447 9568 8855 17403 12850 19734 21943 16048 8522 9077 5895 4969 6971 7257 22107 5325 8284 4307 3757 6815
is_linear=0
shrinkage=0.1


Tree=27
num_leaves=31
num_cat=0
split_feature=1 4 6 3 1 4 4 0 11 1 4 11 4 7 1 9 3 4 7 1 1 11 0 3 3 3 6 0 7 0
split_gain=136.524 81.4172 64.312 42.0305 41.4265 32.6087 28.8877 26.2622 24.0307 20.7277 19.2936 18.0773 16.1646 15.7209 14.6211 14.1328 19.2102 16.6404 13.5743 12.9535 16.1685 12.9074 12.5961 12.3765 15.2072 11.7366 11.5843 11.5046 11.407 11.3175
threshold=-0.07001268973785571 1.0000000180025095e-35 1.0000000180025095e-35 -0.78266752912096449 1.3956400845886636 1.7281360238553518 1.0000000180025095e-35 0.033933918281265414 1.0000000180025095e-35 4.1014605910376227 1.7281360238553518 1.0000000180025095e-35 1.7281360238553518 -1.5606076684844392 3.7632330277315025 1.0000000180025095e-35 0.092395250058464343 1.0000000180025095e-35 -1.7685886938209145 0.83192747907846376 2.1848377323029431 1.0000000180025095e-35 -1.6151825464260476 -0.16484799995460822 0.092395250058464343 1.5736662280525853 1.0000000180025095e-35 1.2957578799133767 1.0236864932641894 -2.3772742460256393
decision_type=2 2 2 2 2 2 2 2 2 2 2 2 2 2 2 2 2 2 2 2 2 2 2 2 2 2 2 2 2 2
left_child=1 11 4 8 5 7 14 15 26 13 23 18 -5 -6 19 16 17 -2 -1 28 22 -9 -21 -8 -25 -18 -3 -15 -4 -19
right_child=2 3 6 12 9 -7 10 21 -10 -11 -12 -13 -14 27 -16 -17 25 29 -20 20 -22 -23 -24 24 -26 -27 -28 -29 -30 -31
leaf_value=0.023912424678531097 0.030125001020703115 -0.044865275649438048 -0.0080178789649265076 -0.017217417744994506 -0.0094419829613280239 0.064370480173362415 -0.031682820282613468 -0.0071000743222827791 -0.026808922799222357 -0.13254758051233198 0.026106520016173831 0.0025303698503072007 0.033812486811625818 0.04357287357451773 -0.080603477592381789 0.02885542562674915 -0.0077696930833342712 0.13088684396035066 -0.013149375836359854 -0.029777689278041926 -0.0080782318848226214 0.0087038274915529415 0.019646246838786671 0.23053940257998862 -0.010156308868746293 0.035778489421996462 -0.073950896042803499 -8.9873404517301463e-05 0.01505109510647561 -0.00028758542881923021
leaf_weight=104.35246154665947 607.22557736933231 310.8547086790204 1111.0071996711195 702.96800908260047 70.388085313141346 109.07602070271969 518.91814651340246 1019.8522417359054 461.79867087118328 7.3746604472398749 94.339512638747692 1875.8509840518236 68.087084218859673 716.77359306812286 20.962722770869732 659.51112553477287 527.61177515238523 6.7120762169361106 1865.484753202647 54.614555761218071 353.02021685987711 1047.6700506880879 923.71071770787239 2.6413432620465747 421.76303522661328 70.111567720770836 244.74866022728384 65.893864154815674 265.58343453705311 327.66142911836505
leaf_count=837 2888 9017 6707 9422 404 979 10649 6829 12692 33 618 11882 392 4458 123 3322 2725 67 15966 239 1653 6013 4056 35 3795 346 9969 363 1554 3994
internal_value=0 -0.0126932 0.0071554 -0.0303208 0.0143242 0.0103797 -0.00280984 0.00899931 -0.0436664 0.0343826 -0.0170118 -0.00449544 -0.0127113 0.0358258 0.00259046 0.0166072 0.0113596 0.0202602 -0.011186 0.00323448 0.0102673 0.000908195 0.0168872 -0.021324 -0.0086583 -0.00266159 -0.0576778 0.0398968 -0.00356722 0.00234556
internal_weight=0 5634.15 9002.42 1788.46 5235.86 4375.43 3766.56 4266.36 1017.4 860.43 1037.66 3845.69 771.055 853.056 2728.9 2198.83 1539.32 941.599 1969.84 2707.94 1331.35 2067.52 978.325 943.323 424.404 597.723 555.603 782.667 1376.59 334.374
internal_count=132027 70177 61850 41492 32421 27163 29429 26184 31678 5258 15097 28685 9814 5225 14332 13342 10020 6949 16803 14209 5948 12842 4295 14479 3830 3071 18986 4821 8261 4061
is_linear=0
shrinkage=0.1


Tree=28
num_leaves=31
num_cat=0
split_feature=1 6 4 1 11 7 4 3 4 4 9 3 4 3 3 3 0 2 9 3 3 0 11 0 0 0 5 3 3 3
split_gain=116.589 82.8038 73.2124 38.5171 34.2759 27.0571 26.9568 23.3882 21.8668 21.8258 20.1384 19.3596 21.4917 18.6986 17.0051 16.8509 15.9653 15.8558 15.2865 33.3838 14.3277 13.8974 13.5501 12.8959 12.469 12.9969 12.325 18.2627 12.2631 13.8443
